digraph Tree {
node [shape=box, style="filled, rounded", color="black", fontname=helvetica] ;
edge [fontname=helvetica] ;
0 [label="Capital-Gain <= 7073.5\ngini = 0.36\nsamples = 20577\nvalue = [24786, 7774]\nclass = I", fillcolor="#eda977"] ;
1 [label="Education-Num <= 12.5\ngini = 0.33\nsamples = 19674\nvalue = [24764, 6399]\nclass = I", fillcolor="#eca26c"] ;
0 -> 1 [labeldistance=2.5, labelangle=45, headlabel="True"] ;
2 [label="Hours-Per-Week <= 40.5\ngini = 0.24\nsamples = 15100\nvalue = [20596, 3404]\nclass = I", fillcolor="#e9965a"] ;
1 -> 2 ;
3 [label="Capital-Loss <= 1820.5\ngini = 0.19\nsamples = 11374\nvalue = [16186, 1931]\nclass = I", fillcolor="#e89051"] ;
2 -> 3 ;
4 [label="Relationship <= 0.5\ngini = 0.18\nsamples = 11176\nvalue = [16034, 1770]\nclass = I", fillcolor="#e88f4f"] ;
3 -> 4 ;
5 [label="Education <= 6.5\ngini = 0.36\nsamples = 3400\nvalue = [4125, 1290]\nclass = I", fillcolor="#eda877"] ;
4 -> 5 ;
6 [label="Capital-Loss <= 952.0\ngini = 0.14\nsamples = 663\nvalue = [966, 80]\nclass = I", fillcolor="#e78b49"] ;
5 -> 6 ;
7 [label="Hours-Per-Week <= 36.5\ngini = 0.14\nsamples = 655\nvalue = [956, 78]\nclass = I", fillcolor="#e78b49"] ;
6 -> 7 ;
8 [label="Capital-Gain <= 4164.0\ngini = 0.07\nsamples = 143\nvalue = [223, 8]\nclass = I", fillcolor="#e68640"] ;
7 -> 8 ;
9 [label="Capital-Gain <= 704.5\ngini = 0.04\nsamples = 141\nvalue = [223, 5]\nclass = I", fillcolor="#e6843d"] ;
8 -> 9 ;
10 [label="Workclass <= 3.0\ngini = 0.05\nsamples = 134\nvalue = [210, 5]\nclass = I", fillcolor="#e6843e"] ;
9 -> 10 ;
11 [label="gini = 0.0\nsamples = 36\nvalue = [57, 0]\nclass = I", fillcolor="#e58139"] ;
10 -> 11 ;
12 [label="Education <= 0.5\ngini = 0.06\nsamples = 98\nvalue = [153, 5]\nclass = I", fillcolor="#e6853f"] ;
10 -> 12 ;
13 [label="Occupation <= 5.5\ngini = 0.2\nsamples = 23\nvalue = [31, 4]\nclass = I", fillcolor="#e89153"] ;
12 -> 13 ;
14 [label="gini = 0.0\nsamples = 10\nvalue = [15, 0]\nclass = I", fillcolor="#e58139"] ;
13 -> 14 ;
15 [label="Age <= 54.5\ngini = 0.32\nsamples = 13\nvalue = [16, 4]\nclass = I", fillcolor="#eca06a"] ;
13 -> 15 ;
16 [label="gini = 0.0\nsamples = 7\nvalue = [9, 0]\nclass = I", fillcolor="#e58139"] ;
15 -> 16 ;
17 [label="Hours-Per-Week <= 21.0\ngini = 0.46\nsamples = 6\nvalue = [7, 4]\nclass = I", fillcolor="#f4c9aa"] ;
15 -> 17 ;
18 [label="Occupation <= 12.0\ngini = 0.24\nsamples = 3\nvalue = [6, 1]\nclass = I", fillcolor="#e9965a"] ;
17 -> 18 ;
19 [label="gini = 0.0\nsamples = 1\nvalue = [0, 1]\nclass = n", fillcolor="#399de5"] ;
18 -> 19 ;
20 [label="gini = 0.0\nsamples = 2\nvalue = [6, 0]\nclass = I", fillcolor="#e58139"] ;
18 -> 20 ;
21 [label="Native-Country <= 22.0\ngini = 0.38\nsamples = 3\nvalue = [1, 3]\nclass = n", fillcolor="#7bbeee"] ;
17 -> 21 ;
22 [label="gini = 0.0\nsamples = 1\nvalue = [0, 1]\nclass = n", fillcolor="#399de5"] ;
21 -> 22 ;
23 [label="Age <= 63.5\ngini = 0.44\nsamples = 2\nvalue = [1, 2]\nclass = n", fillcolor="#9ccef2"] ;
21 -> 23 ;
24 [label="gini = 0.0\nsamples = 1\nvalue = [1, 0]\nclass = I", fillcolor="#e58139"] ;
23 -> 24 ;
25 [label="gini = 0.0\nsamples = 1\nvalue = [0, 2]\nclass = n", fillcolor="#399de5"] ;
23 -> 25 ;
26 [label="Native-Country <= 38.5\ngini = 0.02\nsamples = 75\nvalue = [122, 1]\nclass = I", fillcolor="#e5823b"] ;
12 -> 26 ;
27 [label="gini = 0.0\nsamples = 17\nvalue = [30, 0]\nclass = I", fillcolor="#e58139"] ;
26 -> 27 ;
28 [label="Education-Num <= 4.5\ngini = 0.02\nsamples = 58\nvalue = [92, 1]\nclass = I", fillcolor="#e5823b"] ;
26 -> 28 ;
29 [label="Age <= 61.5\ngini = 0.04\nsamples = 31\nvalue = [52, 1]\nclass = I", fillcolor="#e6833d"] ;
28 -> 29 ;
30 [label="Workclass <= 5.0\ngini = 0.09\nsamples = 12\nvalue = [20, 1]\nclass = I", fillcolor="#e68743"] ;
29 -> 30 ;
31 [label="gini = 0.0\nsamples = 6\nvalue = [11, 0]\nclass = I", fillcolor="#e58139"] ;
30 -> 31 ;
32 [label="Hours-Per-Week <= 25.0\ngini = 0.18\nsamples = 6\nvalue = [9, 1]\nclass = I", fillcolor="#e88f4f"] ;
30 -> 32 ;
33 [label="gini = 0.0\nsamples = 3\nvalue = [4, 0]\nclass = I", fillcolor="#e58139"] ;
32 -> 33 ;
34 [label="Age <= 48.5\ngini = 0.28\nsamples = 3\nvalue = [5, 1]\nclass = I", fillcolor="#ea9a61"] ;
32 -> 34 ;
35 [label="gini = 0.0\nsamples = 1\nvalue = [3, 0]\nclass = I", fillcolor="#e58139"] ;
34 -> 35 ;
36 [label="Occupation <= 13.0\ngini = 0.44\nsamples = 2\nvalue = [2, 1]\nclass = I", fillcolor="#f2c09c"] ;
34 -> 36 ;
37 [label="gini = 0.0\nsamples = 1\nvalue = [0, 1]\nclass = n", fillcolor="#399de5"] ;
36 -> 37 ;
38 [label="gini = 0.0\nsamples = 1\nvalue = [2, 0]\nclass = I", fillcolor="#e58139"] ;
36 -> 38 ;
39 [label="gini = 0.0\nsamples = 19\nvalue = [32, 0]\nclass = I", fillcolor="#e58139"] ;
29 -> 39 ;
40 [label="gini = 0.0\nsamples = 27\nvalue = [40, 0]\nclass = I", fillcolor="#e58139"] ;
28 -> 40 ;
41 [label="gini = 0.0\nsamples = 7\nvalue = [13, 0]\nclass = I", fillcolor="#e58139"] ;
9 -> 41 ;
42 [label="gini = 0.0\nsamples = 2\nvalue = [0, 3]\nclass = n", fillcolor="#399de5"] ;
8 -> 42 ;
43 [label="Hours-Per-Week <= 37.5\ngini = 0.16\nsamples = 512\nvalue = [733, 70]\nclass = I", fillcolor="#e78d4c"] ;
7 -> 43 ;
44 [label="Education-Num <= 6.0\ngini = 0.5\nsamples = 4\nvalue = [3, 3]\nclass = I", fillcolor="#ffffff"] ;
43 -> 44 ;
45 [label="gini = 0.0\nsamples = 2\nvalue = [2, 0]\nclass = I", fillcolor="#e58139"] ;
44 -> 45 ;
46 [label="Age <= 51.0\ngini = 0.38\nsamples = 2\nvalue = [1, 3]\nclass = n", fillcolor="#7bbeee"] ;
44 -> 46 ;
47 [label="gini = 0.0\nsamples = 1\nvalue = [1, 0]\nclass = I", fillcolor="#e58139"] ;
46 -> 47 ;
48 [label="gini = 0.0\nsamples = 1\nvalue = [0, 3]\nclass = n", fillcolor="#399de5"] ;
46 -> 48 ;
49 [label="Capital-Gain <= 5095.5\ngini = 0.15\nsamples = 508\nvalue = [730, 67]\nclass = I", fillcolor="#e78d4b"] ;
43 -> 49 ;
50 [label="Capital-Gain <= 898.5\ngini = 0.14\nsamples = 504\nvalue = [730, 61]\nclass = I", fillcolor="#e78c4a"] ;
49 -> 50 ;
51 [label="Hours-Per-Week <= 39.0\ngini = 0.15\nsamples = 477\nvalue = [688, 61]\nclass = I", fillcolor="#e78c4b"] ;
50 -> 51 ;
52 [label="gini = 0.0\nsamples = 2\nvalue = [4, 0]\nclass = I", fillcolor="#e58139"] ;
51 -> 52 ;
53 [label="Education <= 4.5\ngini = 0.15\nsamples = 475\nvalue = [684, 61]\nclass = I", fillcolor="#e78c4b"] ;
51 -> 53 ;
54 [label="Age <= 36.5\ngini = 0.19\nsamples = 310\nvalue = [432, 52]\nclass = I", fillcolor="#e89051"] ;
53 -> 54 ;
55 [label="Education-Num <= 7.5\ngini = 0.09\nsamples = 108\nvalue = [170, 8]\nclass = I", fillcolor="#e68742"] ;
54 -> 55 ;
56 [label="Native-Country <= 36.0\ngini = 0.01\nsamples = 92\nvalue = [144, 1]\nclass = I", fillcolor="#e5823a"] ;
55 -> 56 ;
57 [label="gini = 0.0\nsamples = 28\nvalue = [45, 0]\nclass = I", fillcolor="#e58139"] ;
56 -> 57 ;
58 [label="Occupation <= 2.0\ngini = 0.02\nsamples = 64\nvalue = [99, 1]\nclass = I", fillcolor="#e5823b"] ;
56 -> 58 ;
59 [label="Education <= 0.5\ngini = 0.5\nsamples = 2\nvalue = [1, 1]\nclass = I", fillcolor="#ffffff"] ;
58 -> 59 ;
60 [label="gini = 0.0\nsamples = 1\nvalue = [1, 0]\nclass = I", fillcolor="#e58139"] ;
59 -> 60 ;
61 [label="gini = 0.0\nsamples = 1\nvalue = [0, 1]\nclass = n", fillcolor="#399de5"] ;
59 -> 61 ;
62 [label="gini = 0.0\nsamples = 62\nvalue = [98, 0]\nclass = I", fillcolor="#e58139"] ;
58 -> 62 ;
63 [label="Occupation <= 11.5\ngini = 0.33\nsamples = 16\nvalue = [26, 7]\nclass = I", fillcolor="#eca36e"] ;
55 -> 63 ;
64 [label="Age <= 25.5\ngini = 0.18\nsamples = 11\nvalue = [18, 2]\nclass = I", fillcolor="#e88f4f"] ;
63 -> 64 ;
65 [label="Occupation <= 5.0\ngini = 0.48\nsamples = 3\nvalue = [3, 2]\nclass = I", fillcolor="#f6d5bd"] ;
64 -> 65 ;
66 [label="Age <= 24.5\ngini = 0.5\nsamples = 2\nvalue = [2, 2]\nclass = I", fillcolor="#ffffff"] ;
65 -> 66 ;
67 [label="gini = 0.0\nsamples = 1\nvalue = [2, 0]\nclass = I", fillcolor="#e58139"] ;
66 -> 67 ;
68 [label="gini = 0.0\nsamples = 1\nvalue = [0, 2]\nclass = n", fillcolor="#399de5"] ;
66 -> 68 ;
69 [label="gini = 0.0\nsamples = 1\nvalue = [1, 0]\nclass = I", fillcolor="#e58139"] ;
65 -> 69 ;
70 [label="gini = 0.0\nsamples = 8\nvalue = [15, 0]\nclass = I", fillcolor="#e58139"] ;
64 -> 70 ;
71 [label="Native-Country <= 32.5\ngini = 0.47\nsamples = 5\nvalue = [8, 5]\nclass = I", fillcolor="#f5d0b5"] ;
63 -> 71 ;
72 [label="gini = 0.0\nsamples = 1\nvalue = [4, 0]\nclass = I", fillcolor="#e58139"] ;
71 -> 72 ;
73 [label="Age <= 33.5\ngini = 0.49\nsamples = 4\nvalue = [4, 5]\nclass = n", fillcolor="#d7ebfa"] ;
71 -> 73 ;
74 [label="Age <= 25.5\ngini = 0.28\nsamples = 3\nvalue = [1, 5]\nclass = n", fillcolor="#61b1ea"] ;
73 -> 74 ;
75 [label="gini = 0.0\nsamples = 1\nvalue = [1, 0]\nclass = I", fillcolor="#e58139"] ;
74 -> 75 ;
76 [label="gini = 0.0\nsamples = 2\nvalue = [0, 5]\nclass = n", fillcolor="#399de5"] ;
74 -> 76 ;
77 [label="gini = 0.0\nsamples = 1\nvalue = [3, 0]\nclass = I", fillcolor="#e58139"] ;
73 -> 77 ;
78 [label="Education <= 0.5\ngini = 0.25\nsamples = 202\nvalue = [262, 44]\nclass = I", fillcolor="#e9965a"] ;
54 -> 78 ;
79 [label="Occupation <= 4.5\ngini = 0.27\nsamples = 71\nvalue = [88, 17]\nclass = I", fillcolor="#ea995f"] ;
78 -> 79 ;
80 [label="Workclass <= 6.5\ngini = 0.4\nsamples = 29\nvalue = [31, 12]\nclass = I", fillcolor="#efb286"] ;
79 -> 80 ;
81 [label="Workclass <= 3.0\ngini = 0.37\nsamples = 28\nvalue = [31, 10]\nclass = I", fillcolor="#edaa79"] ;
80 -> 81 ;
82 [label="gini = 0.0\nsamples = 5\nvalue = [9, 0]\nclass = I", fillcolor="#e58139"] ;
81 -> 82 ;
83 [label="Occupation <= 2.0\ngini = 0.43\nsamples = 23\nvalue = [22, 10]\nclass = I", fillcolor="#f1ba93"] ;
81 -> 83 ;
84 [label="gini = 0.0\nsamples = 3\nvalue = [3, 0]\nclass = I", fillcolor="#e58139"] ;
83 -> 84 ;
85 [label="Age <= 59.5\ngini = 0.45\nsamples = 20\nvalue = [19, 10]\nclass = I", fillcolor="#f3c3a1"] ;
83 -> 85 ;
86 [label="Occupation <= 3.5\ngini = 0.49\nsamples = 17\nvalue = [14, 10]\nclass = I", fillcolor="#f8dbc6"] ;
85 -> 86 ;
87 [label="Race <= 3.0\ngini = 0.48\nsamples = 14\nvalue = [11, 7]\nclass = I", fillcolor="#f6d1b7"] ;
86 -> 87 ;
88 [label="gini = 0.0\nsamples = 1\nvalue = [0, 1]\nclass = n", fillcolor="#399de5"] ;
87 -> 88 ;
89 [label="Age <= 48.5\ngini = 0.46\nsamples = 13\nvalue = [11, 6]\nclass = I", fillcolor="#f3c6a5"] ;
87 -> 89 ;
90 [label="gini = 0.0\nsamples = 5\nvalue = [6, 0]\nclass = I", fillcolor="#e58139"] ;
89 -> 90 ;
91 [label="Workclass <= 5.0\ngini = 0.5\nsamples = 8\nvalue = [5, 6]\nclass = n", fillcolor="#deeffb"] ;
89 -> 91 ;
92 [label="Age <= 55.0\ngini = 0.38\nsamples = 6\nvalue = [2, 6]\nclass = n", fillcolor="#7bbeee"] ;
91 -> 92 ;
93 [label="Age <= 51.5\ngini = 0.44\nsamples = 4\nvalue = [2, 4]\nclass = n", fillcolor="#9ccef2"] ;
92 -> 93 ;
94 [label="Age <= 50.5\ngini = 0.32\nsamples = 3\nvalue = [1, 4]\nclass = n", fillcolor="#6ab6ec"] ;
93 -> 94 ;
95 [label="gini = 0.44\nsamples = 2\nvalue = [1, 2]\nclass = n", fillcolor="#9ccef2"] ;
94 -> 95 ;
96 [label="gini = 0.0\nsamples = 1\nvalue = [0, 2]\nclass = n", fillcolor="#399de5"] ;
94 -> 96 ;
97 [label="gini = 0.0\nsamples = 1\nvalue = [1, 0]\nclass = I", fillcolor="#e58139"] ;
93 -> 97 ;
98 [label="gini = 0.0\nsamples = 2\nvalue = [0, 2]\nclass = n", fillcolor="#399de5"] ;
92 -> 98 ;
99 [label="gini = 0.0\nsamples = 2\nvalue = [3, 0]\nclass = I", fillcolor="#e58139"] ;
91 -> 99 ;
100 [label="Age <= 41.0\ngini = 0.5\nsamples = 3\nvalue = [3, 3]\nclass = I", fillcolor="#ffffff"] ;
86 -> 100 ;
101 [label="gini = 0.0\nsamples = 2\nvalue = [0, 3]\nclass = n", fillcolor="#399de5"] ;
100 -> 101 ;
102 [label="gini = 0.0\nsamples = 1\nvalue = [3, 0]\nclass = I", fillcolor="#e58139"] ;
100 -> 102 ;
103 [label="gini = 0.0\nsamples = 3\nvalue = [5, 0]\nclass = I", fillcolor="#e58139"] ;
85 -> 103 ;
104 [label="gini = 0.0\nsamples = 1\nvalue = [0, 2]\nclass = n", fillcolor="#399de5"] ;
80 -> 104 ;
105 [label="Native-Country <= 32.5\ngini = 0.15\nsamples = 42\nvalue = [57, 5]\nclass = I", fillcolor="#e78c4a"] ;
79 -> 105 ;
106 [label="gini = 0.0\nsamples = 1\nvalue = [2, 0]\nclass = I", fillcolor="#e58139"] ;
105 -> 106 ;
107 [label="Workclass <= 5.0\ngini = 0.15\nsamples = 41\nvalue = [55, 5]\nclass = I", fillcolor="#e78c4b"] ;
105 -> 107 ;
108 [label="Workclass <= 3.0\ngini = 0.18\nsamples = 37\nvalue = [44, 5]\nclass = I", fillcolor="#e88f50"] ;
107 -> 108 ;
109 [label="gini = 0.0\nsamples = 2\nvalue = [3, 0]\nclass = I", fillcolor="#e58139"] ;
108 -> 109 ;
110 [label="Occupation <= 6.5\ngini = 0.19\nsamples = 35\nvalue = [41, 5]\nclass = I", fillcolor="#e89051"] ;
108 -> 110 ;
111 [label="gini = 0.0\nsamples = 6\nvalue = [6, 0]\nclass = I", fillcolor="#e58139"] ;
110 -> 111 ;
112 [label="Race <= 3.0\ngini = 0.22\nsamples = 29\nvalue = [35, 5]\nclass = I", fillcolor="#e99355"] ;
110 -> 112 ;
113 [label="Age <= 44.5\ngini = 0.32\nsamples = 5\nvalue = [4, 1]\nclass = I", fillcolor="#eca06a"] ;
112 -> 113 ;
114 [label="gini = 0.0\nsamples = 1\nvalue = [0, 1]\nclass = n", fillcolor="#399de5"] ;
113 -> 114 ;
115 [label="gini = 0.0\nsamples = 4\nvalue = [4, 0]\nclass = I", fillcolor="#e58139"] ;
113 -> 115 ;
116 [label="Occupation <= 7.5\ngini = 0.2\nsamples = 24\nvalue = [31, 4]\nclass = I", fillcolor="#e89153"] ;
112 -> 116 ;
117 [label="Age <= 38.5\ngini = 0.27\nsamples = 11\nvalue = [16, 3]\nclass = I", fillcolor="#ea995e"] ;
116 -> 117 ;
118 [label="gini = 0.0\nsamples = 1\nvalue = [0, 2]\nclass = n", fillcolor="#399de5"] ;
117 -> 118 ;
119 [label="Age <= 41.0\ngini = 0.11\nsamples = 10\nvalue = [16, 1]\nclass = I", fillcolor="#e78945"] ;
117 -> 119 ;
120 [label="Age <= 39.5\ngini = 0.32\nsamples = 2\nvalue = [4, 1]\nclass = I", fillcolor="#eca06a"] ;
119 -> 120 ;
121 [label="gini = 0.0\nsamples = 1\nvalue = [4, 0]\nclass = I", fillcolor="#e58139"] ;
120 -> 121 ;
122 [label="gini = 0.0\nsamples = 1\nvalue = [0, 1]\nclass = n", fillcolor="#399de5"] ;
120 -> 122 ;
123 [label="gini = 0.0\nsamples = 8\nvalue = [12, 0]\nclass = I", fillcolor="#e58139"] ;
119 -> 123 ;
124 [label="Age <= 63.5\ngini = 0.12\nsamples = 13\nvalue = [15, 1]\nclass = I", fillcolor="#e78946"] ;
116 -> 124 ;
125 [label="gini = 0.0\nsamples = 11\nvalue = [13, 0]\nclass = I", fillcolor="#e58139"] ;
124 -> 125 ;
126 [label="Age <= 65.0\ngini = 0.44\nsamples = 2\nvalue = [2, 1]\nclass = I", fillcolor="#f2c09c"] ;
124 -> 126 ;
127 [label="gini = 0.0\nsamples = 1\nvalue = [0, 1]\nclass = n", fillcolor="#399de5"] ;
126 -> 127 ;
128 [label="gini = 0.0\nsamples = 1\nvalue = [2, 0]\nclass = I", fillcolor="#e58139"] ;
126 -> 128 ;
129 [label="gini = 0.0\nsamples = 4\nvalue = [11, 0]\nclass = I", fillcolor="#e58139"] ;
107 -> 129 ;
130 [label="Occupation <= 10.0\ngini = 0.23\nsamples = 131\nvalue = [174, 27]\nclass = I", fillcolor="#e99558"] ;
78 -> 130 ;
131 [label="Native-Country <= 18.0\ngini = 0.19\nsamples = 102\nvalue = [137, 16]\nclass = I", fillcolor="#e89050"] ;
130 -> 131 ;
132 [label="Education-Num <= 5.0\ngini = 0.27\nsamples = 14\nvalue = [16, 3]\nclass = I", fillcolor="#ea995e"] ;
131 -> 132 ;
133 [label="Native-Country <= 13.5\ngini = 0.4\nsamples = 8\nvalue = [8, 3]\nclass = I", fillcolor="#efb083"] ;
132 -> 133 ;
134 [label="Race <= 3.5\ngini = 0.2\nsamples = 7\nvalue = [8, 1]\nclass = I", fillcolor="#e89152"] ;
133 -> 134 ;
135 [label="gini = 0.0\nsamples = 2\nvalue = [4, 0]\nclass = I", fillcolor="#e58139"] ;
134 -> 135 ;
136 [label="Workclass <= 4.5\ngini = 0.32\nsamples = 5\nvalue = [4, 1]\nclass = I", fillcolor="#eca06a"] ;
134 -> 136 ;
137 [label="gini = 0.0\nsamples = 4\nvalue = [4, 0]\nclass = I", fillcolor="#e58139"] ;
136 -> 137 ;
138 [label="gini = 0.0\nsamples = 1\nvalue = [0, 1]\nclass = n", fillcolor="#399de5"] ;
136 -> 138 ;
139 [label="gini = 0.0\nsamples = 1\nvalue = [0, 2]\nclass = n", fillcolor="#399de5"] ;
133 -> 139 ;
140 [label="gini = 0.0\nsamples = 6\nvalue = [8, 0]\nclass = I", fillcolor="#e58139"] ;
132 -> 140 ;
141 [label="Education-Num <= 5.0\ngini = 0.18\nsamples = 88\nvalue = [121, 13]\nclass = I", fillcolor="#e88f4e"] ;
131 -> 141 ;
142 [label="Age <= 59.0\ngini = 0.08\nsamples = 33\nvalue = [46, 2]\nclass = I", fillcolor="#e68642"] ;
141 -> 142 ;
143 [label="gini = 0.0\nsamples = 29\nvalue = [43, 0]\nclass = I", fillcolor="#e58139"] ;
142 -> 143 ;
144 [label="Education-Num <= 2.5\ngini = 0.48\nsamples = 4\nvalue = [3, 2]\nclass = I", fillcolor="#f6d5bd"] ;
142 -> 144 ;
145 [label="Workclass <= 2.0\ngini = 0.44\nsamples = 2\nvalue = [1, 2]\nclass = n", fillcolor="#9ccef2"] ;
144 -> 145 ;
146 [label="gini = 0.0\nsamples = 1\nvalue = [1, 0]\nclass = I", fillcolor="#e58139"] ;
145 -> 146 ;
147 [label="gini = 0.0\nsamples = 1\nvalue = [0, 2]\nclass = n", fillcolor="#399de5"] ;
145 -> 147 ;
148 [label="gini = 0.0\nsamples = 2\nvalue = [2, 0]\nclass = I", fillcolor="#e58139"] ;
144 -> 148 ;
149 [label="Occupation <= 6.5\ngini = 0.22\nsamples = 55\nvalue = [75, 11]\nclass = I", fillcolor="#e99356"] ;
141 -> 149 ;
150 [label="Race <= 3.0\ngini = 0.29\nsamples = 38\nvalue = [48, 10]\nclass = I", fillcolor="#ea9b62"] ;
149 -> 150 ;
151 [label="Occupation <= 4.5\ngini = 0.44\nsamples = 3\nvalue = [2, 1]\nclass = I", fillcolor="#f2c09c"] ;
150 -> 151 ;
152 [label="gini = 0.0\nsamples = 2\nvalue = [2, 0]\nclass = I", fillcolor="#e58139"] ;
151 -> 152 ;
153 [label="gini = 0.0\nsamples = 1\nvalue = [0, 1]\nclass = n", fillcolor="#399de5"] ;
151 -> 153 ;
154 [label="Education <= 1.5\ngini = 0.27\nsamples = 35\nvalue = [46, 9]\nclass = I", fillcolor="#ea9a60"] ;
150 -> 154 ;
155 [label="Age <= 37.5\ngini = 0.27\nsamples = 24\nvalue = [32, 6]\nclass = I", fillcolor="#ea995e"] ;
154 -> 155 ;
156 [label="gini = 0.0\nsamples = 1\nvalue = [0, 2]\nclass = n", fillcolor="#399de5"] ;
155 -> 156 ;
157 [label="Occupation <= 2.0\ngini = 0.2\nsamples = 23\nvalue = [32, 4]\nclass = I", fillcolor="#e89152"] ;
155 -> 157 ;
158 [label="Age <= 46.5\ngini = 0.4\nsamples = 6\nvalue = [8, 3]\nclass = I", fillcolor="#efb083"] ;
157 -> 158 ;
159 [label="gini = 0.0\nsamples = 1\nvalue = [0, 3]\nclass = n", fillcolor="#399de5"] ;
158 -> 159 ;
160 [label="gini = 0.0\nsamples = 5\nvalue = [8, 0]\nclass = I", fillcolor="#e58139"] ;
158 -> 160 ;
161 [label="Occupation <= 4.0\ngini = 0.08\nsamples = 17\nvalue = [24, 1]\nclass = I", fillcolor="#e68641"] ;
157 -> 161 ;
162 [label="Workclass <= 5.0\ngini = 0.09\nsamples = 13\nvalue = [19, 1]\nclass = I", fillcolor="#e68843"] ;
161 -> 162 ;
163 [label="Age <= 52.5\ngini = 0.1\nsamples = 11\nvalue = [17, 1]\nclass = I", fillcolor="#e78845"] ;
162 -> 163 ;
164 [label="Age <= 47.5\ngini = 0.32\nsamples = 4\nvalue = [4, 1]\nclass = I", fillcolor="#eca06a"] ;
163 -> 164 ;
165 [label="gini = 0.0\nsamples = 3\nvalue = [4, 0]\nclass = I", fillcolor="#e58139"] ;
164 -> 165 ;
166 [label="gini = 0.0\nsamples = 1\nvalue = [0, 1]\nclass = n", fillcolor="#399de5"] ;
164 -> 166 ;
167 [label="gini = 0.0\nsamples = 7\nvalue = [13, 0]\nclass = I", fillcolor="#e58139"] ;
163 -> 167 ;
168 [label="gini = 0.0\nsamples = 2\nvalue = [2, 0]\nclass = I", fillcolor="#e58139"] ;
162 -> 168 ;
169 [label="gini = 0.0\nsamples = 4\nvalue = [5, 0]\nclass = I", fillcolor="#e58139"] ;
161 -> 169 ;
170 [label="Occupation <= 2.0\ngini = 0.29\nsamples = 11\nvalue = [14, 3]\nclass = I", fillcolor="#eb9c63"] ;
154 -> 170 ;
171 [label="gini = 0.0\nsamples = 2\nvalue = [3, 0]\nclass = I", fillcolor="#e58139"] ;
170 -> 171 ;
172 [label="Workclass <= 5.0\ngini = 0.34\nsamples = 9\nvalue = [11, 3]\nclass = I", fillcolor="#eca36f"] ;
170 -> 172 ;
173 [label="Native-Country <= 30.5\ngini = 0.26\nsamples = 8\nvalue = [11, 2]\nclass = I", fillcolor="#ea985d"] ;
172 -> 173 ;
174 [label="gini = 0.0\nsamples = 1\nvalue = [2, 0]\nclass = I", fillcolor="#e58139"] ;
173 -> 174 ;
175 [label="Workclass <= 3.0\ngini = 0.3\nsamples = 7\nvalue = [9, 2]\nclass = I", fillcolor="#eb9d65"] ;
173 -> 175 ;
176 [label="gini = 0.0\nsamples = 1\nvalue = [2, 0]\nclass = I", fillcolor="#e58139"] ;
175 -> 176 ;
177 [label="Occupation <= 4.5\ngini = 0.35\nsamples = 6\nvalue = [7, 2]\nclass = I", fillcolor="#eca572"] ;
175 -> 177 ;
178 [label="Age <= 40.5\ngini = 0.22\nsamples = 5\nvalue = [7, 1]\nclass = I", fillcolor="#e99355"] ;
177 -> 178 ;
179 [label="gini = 0.0\nsamples = 1\nvalue = [0, 1]\nclass = n", fillcolor="#399de5"] ;
178 -> 179 ;
180 [label="gini = 0.0\nsamples = 4\nvalue = [7, 0]\nclass = I", fillcolor="#e58139"] ;
178 -> 180 ;
181 [label="gini = 0.0\nsamples = 1\nvalue = [0, 1]\nclass = n", fillcolor="#399de5"] ;
177 -> 181 ;
182 [label="gini = 0.0\nsamples = 1\nvalue = [0, 1]\nclass = n", fillcolor="#399de5"] ;
172 -> 182 ;
183 [label="Workclass <= 3.0\ngini = 0.07\nsamples = 17\nvalue = [27, 1]\nclass = I", fillcolor="#e68640"] ;
149 -> 183 ;
184 [label="gini = 0.0\nsamples = 1\nvalue = [1, 0]\nclass = I", fillcolor="#e58139"] ;
183 -> 184 ;
185 [label="Native-Country <= 34.5\ngini = 0.07\nsamples = 16\nvalue = [26, 1]\nclass = I", fillcolor="#e68641"] ;
183 -> 185 ;
186 [label="gini = 0.0\nsamples = 2\nvalue = [4, 0]\nclass = I", fillcolor="#e58139"] ;
185 -> 186 ;
187 [label="Age <= 58.5\ngini = 0.08\nsamples = 14\nvalue = [22, 1]\nclass = I", fillcolor="#e68742"] ;
185 -> 187 ;
188 [label="gini = 0.0\nsamples = 12\nvalue = [20, 0]\nclass = I", fillcolor="#e58139"] ;
187 -> 188 ;
189 [label="Age <= 67.0\ngini = 0.44\nsamples = 2\nvalue = [2, 1]\nclass = I", fillcolor="#f2c09c"] ;
187 -> 189 ;
190 [label="gini = 0.0\nsamples = 1\nvalue = [0, 1]\nclass = n", fillcolor="#399de5"] ;
189 -> 190 ;
191 [label="gini = 0.0\nsamples = 1\nvalue = [2, 0]\nclass = I", fillcolor="#e58139"] ;
189 -> 191 ;
192 [label="Occupation <= 13.0\ngini = 0.35\nsamples = 29\nvalue = [37, 11]\nclass = I", fillcolor="#eda674"] ;
130 -> 192 ;
193 [label="Native-Country <= 32.5\ngini = 0.3\nsamples = 7\nvalue = [2, 9]\nclass = n", fillcolor="#65b3eb"] ;
192 -> 193 ;
194 [label="gini = 0.0\nsamples = 3\nvalue = [0, 5]\nclass = n", fillcolor="#399de5"] ;
193 -> 194 ;
195 [label="Age <= 63.5\ngini = 0.44\nsamples = 4\nvalue = [2, 4]\nclass = n", fillcolor="#9ccef2"] ;
193 -> 195 ;
196 [label="gini = 0.0\nsamples = 3\nvalue = [0, 4]\nclass = n", fillcolor="#399de5"] ;
195 -> 196 ;
197 [label="gini = 0.0\nsamples = 1\nvalue = [2, 0]\nclass = I", fillcolor="#e58139"] ;
195 -> 197 ;
198 [label="Education-Num <= 5.0\ngini = 0.1\nsamples = 22\nvalue = [35, 2]\nclass = I", fillcolor="#e68844"] ;
192 -> 198 ;
199 [label="Age <= 55.5\ngini = 0.2\nsamples = 5\nvalue = [8, 1]\nclass = I", fillcolor="#e89152"] ;
198 -> 199 ;
200 [label="Age <= 51.0\ngini = 0.44\nsamples = 2\nvalue = [2, 1]\nclass = I", fillcolor="#f2c09c"] ;
199 -> 200 ;
201 [label="gini = 0.0\nsamples = 1\nvalue = [2, 0]\nclass = I", fillcolor="#e58139"] ;
200 -> 201 ;
202 [label="gini = 0.0\nsamples = 1\nvalue = [0, 1]\nclass = n", fillcolor="#399de5"] ;
200 -> 202 ;
203 [label="gini = 0.0\nsamples = 3\nvalue = [6, 0]\nclass = I", fillcolor="#e58139"] ;
199 -> 203 ;
204 [label="Education <= 1.5\ngini = 0.07\nsamples = 17\nvalue = [27, 1]\nclass = I", fillcolor="#e68640"] ;
198 -> 204 ;
205 [label="Race <= 3.0\ngini = 0.07\nsamples = 16\nvalue = [26, 1]\nclass = I", fillcolor="#e68641"] ;
204 -> 205 ;
206 [label="gini = 0.0\nsamples = 2\nvalue = [2, 0]\nclass = I", fillcolor="#e58139"] ;
205 -> 206 ;
207 [label="Workclass <= 4.5\ngini = 0.08\nsamples = 14\nvalue = [24, 1]\nclass = I", fillcolor="#e68641"] ;
205 -> 207 ;
208 [label="gini = 0.0\nsamples = 10\nvalue = [18, 0]\nclass = I", fillcolor="#e58139"] ;
207 -> 208 ;
209 [label="Age <= 56.0\ngini = 0.24\nsamples = 4\nvalue = [6, 1]\nclass = I", fillcolor="#e9965a"] ;
207 -> 209 ;
210 [label="gini = 0.0\nsamples = 3\nvalue = [6, 0]\nclass = I", fillcolor="#e58139"] ;
209 -> 210 ;
211 [label="gini = 0.0\nsamples = 1\nvalue = [0, 1]\nclass = n", fillcolor="#399de5"] ;
209 -> 211 ;
212 [label="gini = 0.0\nsamples = 1\nvalue = [1, 0]\nclass = I", fillcolor="#e58139"] ;
204 -> 212 ;
213 [label="Native-Country <= 24.0\ngini = 0.07\nsamples = 165\nvalue = [252, 9]\nclass = I", fillcolor="#e68640"] ;
53 -> 213 ;
214 [label="gini = 0.0\nsamples = 10\nvalue = [17, 0]\nclass = I", fillcolor="#e58139"] ;
213 -> 214 ;
215 [label="Workclass <= 0.5\ngini = 0.07\nsamples = 155\nvalue = [235, 9]\nclass = I", fillcolor="#e68641"] ;
213 -> 215 ;
216 [label="Age <= 61.5\ngini = 0.23\nsamples = 8\nvalue = [13, 2]\nclass = I", fillcolor="#e99457"] ;
215 -> 216 ;
217 [label="Education-Num <= 4.5\ngini = 0.44\nsamples = 3\nvalue = [4, 2]\nclass = I", fillcolor="#f2c09c"] ;
216 -> 217 ;
218 [label="Age <= 56.5\ngini = 0.5\nsamples = 2\nvalue = [2, 2]\nclass = I", fillcolor="#ffffff"] ;
217 -> 218 ;
219 [label="gini = 0.0\nsamples = 1\nvalue = [2, 0]\nclass = I", fillcolor="#e58139"] ;
218 -> 219 ;
220 [label="gini = 0.0\nsamples = 1\nvalue = [0, 2]\nclass = n", fillcolor="#399de5"] ;
218 -> 220 ;
221 [label="gini = 0.0\nsamples = 1\nvalue = [2, 0]\nclass = I", fillcolor="#e58139"] ;
217 -> 221 ;
222 [label="gini = 0.0\nsamples = 5\nvalue = [9, 0]\nclass = I", fillcolor="#e58139"] ;
216 -> 222 ;
223 [label="Age <= 52.5\ngini = 0.06\nsamples = 147\nvalue = [222, 7]\nclass = I", fillcolor="#e6853f"] ;
215 -> 223 ;
224 [label="Race <= 3.5\ngini = 0.03\nsamples = 88\nvalue = [135, 2]\nclass = I", fillcolor="#e5833c"] ;
223 -> 224 ;
225 [label="gini = 0.0\nsamples = 13\nvalue = [19, 0]\nclass = I", fillcolor="#e58139"] ;
224 -> 225 ;
226 [label="Workclass <= 5.0\ngini = 0.03\nsamples = 75\nvalue = [116, 2]\nclass = I", fillcolor="#e5833c"] ;
224 -> 226 ;
227 [label="Native-Country <= 28.5\ngini = 0.02\nsamples = 66\nvalue = [102, 1]\nclass = I", fillcolor="#e5823b"] ;
226 -> 227 ;
228 [label="Occupation <= 6.5\ngini = 0.08\nsamples = 18\nvalue = [23, 1]\nclass = I", fillcolor="#e68642"] ;
227 -> 228 ;
229 [label="gini = 0.0\nsamples = 9\nvalue = [12, 0]\nclass = I", fillcolor="#e58139"] ;
228 -> 229 ;
230 [label="Education <= 5.5\ngini = 0.15\nsamples = 9\nvalue = [11, 1]\nclass = I", fillcolor="#e78c4b"] ;
228 -> 230 ;
231 [label="Occupation <= 7.5\ngini = 0.28\nsamples = 4\nvalue = [5, 1]\nclass = I", fillcolor="#ea9a61"] ;
230 -> 231 ;
232 [label="Age <= 37.5\ngini = 0.44\nsamples = 2\nvalue = [2, 1]\nclass = I", fillcolor="#f2c09c"] ;
231 -> 232 ;
233 [label="gini = 0.0\nsamples = 1\nvalue = [2, 0]\nclass = I", fillcolor="#e58139"] ;
232 -> 233 ;
234 [label="gini = 0.0\nsamples = 1\nvalue = [0, 1]\nclass = n", fillcolor="#399de5"] ;
232 -> 234 ;
235 [label="gini = 0.0\nsamples = 2\nvalue = [3, 0]\nclass = I", fillcolor="#e58139"] ;
231 -> 235 ;
236 [label="gini = 0.0\nsamples = 5\nvalue = [6, 0]\nclass = I", fillcolor="#e58139"] ;
230 -> 236 ;
237 [label="gini = 0.0\nsamples = 48\nvalue = [79, 0]\nclass = I", fillcolor="#e58139"] ;
227 -> 237 ;
238 [label="Education-Num <= 4.5\ngini = 0.12\nsamples = 9\nvalue = [14, 1]\nclass = I", fillcolor="#e78a47"] ;
226 -> 238 ;
239 [label="gini = 0.0\nsamples = 4\nvalue = [7, 0]\nclass = I", fillcolor="#e58139"] ;
238 -> 239 ;
240 [label="Age <= 37.5\ngini = 0.22\nsamples = 5\nvalue = [7, 1]\nclass = I", fillcolor="#e99355"] ;
238 -> 240 ;
241 [label="gini = 0.0\nsamples = 3\nvalue = [5, 0]\nclass = I", fillcolor="#e58139"] ;
240 -> 241 ;
242 [label="Age <= 41.5\ngini = 0.44\nsamples = 2\nvalue = [2, 1]\nclass = I", fillcolor="#f2c09c"] ;
240 -> 242 ;
243 [label="gini = 0.0\nsamples = 1\nvalue = [0, 1]\nclass = n", fillcolor="#399de5"] ;
242 -> 243 ;
244 [label="gini = 0.0\nsamples = 1\nvalue = [2, 0]\nclass = I", fillcolor="#e58139"] ;
242 -> 244 ;
245 [label="Age <= 57.5\ngini = 0.1\nsamples = 59\nvalue = [87, 5]\nclass = I", fillcolor="#e68844"] ;
223 -> 245 ;
246 [label="Age <= 56.5\ngini = 0.26\nsamples = 16\nvalue = [22, 4]\nclass = I", fillcolor="#ea985d"] ;
245 -> 246 ;
247 [label="Occupation <= 3.5\ngini = 0.18\nsamples = 14\nvalue = [18, 2]\nclass = I", fillcolor="#e88f4f"] ;
246 -> 247 ;
248 [label="gini = 0.0\nsamples = 5\nvalue = [7, 0]\nclass = I", fillcolor="#e58139"] ;
247 -> 248 ;
249 [label="Race <= 3.0\ngini = 0.26\nsamples = 9\nvalue = [11, 2]\nclass = I", fillcolor="#ea985d"] ;
247 -> 249 ;
250 [label="gini = 0.0\nsamples = 2\nvalue = [4, 0]\nclass = I", fillcolor="#e58139"] ;
249 -> 250 ;
251 [label="Education-Num <= 4.5\ngini = 0.35\nsamples = 7\nvalue = [7, 2]\nclass = I", fillcolor="#eca572"] ;
249 -> 251 ;
252 [label="Age <= 55.0\ngini = 0.41\nsamples = 5\nvalue = [5, 2]\nclass = I", fillcolor="#efb388"] ;
251 -> 252 ;
253 [label="Workclass <= 4.5\ngini = 0.48\nsamples = 4\nvalue = [3, 2]\nclass = I", fillcolor="#f6d5bd"] ;
252 -> 253 ;
254 [label="Age <= 53.5\ngini = 0.38\nsamples = 3\nvalue = [3, 1]\nclass = I", fillcolor="#eeab7b"] ;
253 -> 254 ;
255 [label="Occupation <= 5.5\ngini = 0.5\nsamples = 2\nvalue = [1, 1]\nclass = I", fillcolor="#ffffff"] ;
254 -> 255 ;
256 [label="gini = 0.0\nsamples = 1\nvalue = [0, 1]\nclass = n", fillcolor="#399de5"] ;
255 -> 256 ;
257 [label="gini = 0.0\nsamples = 1\nvalue = [1, 0]\nclass = I", fillcolor="#e58139"] ;
255 -> 257 ;
258 [label="gini = 0.0\nsamples = 1\nvalue = [2, 0]\nclass = I", fillcolor="#e58139"] ;
254 -> 258 ;
259 [label="gini = 0.0\nsamples = 1\nvalue = [0, 1]\nclass = n", fillcolor="#399de5"] ;
253 -> 259 ;
260 [label="gini = 0.0\nsamples = 1\nvalue = [2, 0]\nclass = I", fillcolor="#e58139"] ;
252 -> 260 ;
261 [label="gini = 0.0\nsamples = 2\nvalue = [2, 0]\nclass = I", fillcolor="#e58139"] ;
251 -> 261 ;
262 [label="Education-Num <= 4.5\ngini = 0.44\nsamples = 2\nvalue = [4, 2]\nclass = I", fillcolor="#f2c09c"] ;
246 -> 262 ;
263 [label="gini = 0.0\nsamples = 1\nvalue = [4, 0]\nclass = I", fillcolor="#e58139"] ;
262 -> 263 ;
264 [label="gini = 0.0\nsamples = 1\nvalue = [0, 2]\nclass = n", fillcolor="#399de5"] ;
262 -> 264 ;
265 [label="Education-Num <= 4.5\ngini = 0.03\nsamples = 43\nvalue = [65, 1]\nclass = I", fillcolor="#e5833c"] ;
245 -> 265 ;
266 [label="Age <= 60.5\ngini = 0.05\nsamples = 27\nvalue = [41, 1]\nclass = I", fillcolor="#e6843e"] ;
265 -> 266 ;
267 [label="Workclass <= 5.0\ngini = 0.12\nsamples = 10\nvalue = [15, 1]\nclass = I", fillcolor="#e78946"] ;
266 -> 267 ;
268 [label="gini = 0.0\nsamples = 6\nvalue = [11, 0]\nclass = I", fillcolor="#e58139"] ;
267 -> 268 ;
269 [label="Age <= 59.5\ngini = 0.32\nsamples = 4\nvalue = [4, 1]\nclass = I", fillcolor="#eca06a"] ;
267 -> 269 ;
270 [label="gini = 0.0\nsamples = 2\nvalue = [3, 0]\nclass = I", fillcolor="#e58139"] ;
269 -> 270 ;
271 [label="Occupation <= 8.5\ngini = 0.5\nsamples = 2\nvalue = [1, 1]\nclass = I", fillcolor="#ffffff"] ;
269 -> 271 ;
272 [label="gini = 0.0\nsamples = 1\nvalue = [1, 0]\nclass = I", fillcolor="#e58139"] ;
271 -> 272 ;
273 [label="gini = 0.0\nsamples = 1\nvalue = [0, 1]\nclass = n", fillcolor="#399de5"] ;
271 -> 273 ;
274 [label="gini = 0.0\nsamples = 17\nvalue = [26, 0]\nclass = I", fillcolor="#e58139"] ;
266 -> 274 ;
275 [label="gini = 0.0\nsamples = 16\nvalue = [24, 0]\nclass = I", fillcolor="#e58139"] ;
265 -> 275 ;
276 [label="gini = 0.0\nsamples = 27\nvalue = [42, 0]\nclass = I", fillcolor="#e58139"] ;
50 -> 276 ;
277 [label="gini = 0.0\nsamples = 4\nvalue = [0, 6]\nclass = n", fillcolor="#399de5"] ;
49 -> 277 ;
278 [label="Education <= 0.5\ngini = 0.28\nsamples = 8\nvalue = [10, 2]\nclass = I", fillcolor="#ea9a61"] ;
6 -> 278 ;
279 [label="gini = 0.0\nsamples = 1\nvalue = [0, 2]\nclass = n", fillcolor="#399de5"] ;
278 -> 279 ;
280 [label="gini = 0.0\nsamples = 7\nvalue = [10, 0]\nclass = I", fillcolor="#e58139"] ;
278 -> 280 ;
281 [label="Age <= 35.5\ngini = 0.4\nsamples = 2737\nvalue = [3159, 1210]\nclass = I", fillcolor="#efb185"] ;
5 -> 281 ;
282 [label="Capital-Gain <= 5095.5\ngini = 0.26\nsamples = 845\nvalue = [1153, 209]\nclass = I", fillcolor="#ea985d"] ;
281 -> 282 ;
283 [label="Education-Num <= 9.5\ngini = 0.25\nsamples = 841\nvalue = [1153, 199]\nclass = I", fillcolor="#e9975b"] ;
282 -> 283 ;
284 [label="Age <= 28.5\ngini = 0.18\nsamples = 475\nvalue = [680, 75]\nclass = I", fillcolor="#e88f4f"] ;
283 -> 284 ;
285 [label="Age <= 24.5\ngini = 0.08\nsamples = 161\nvalue = [248, 11]\nclass = I", fillcolor="#e68742"] ;
284 -> 285 ;
286 [label="gini = 0.0\nsamples = 55\nvalue = [92, 0]\nclass = I", fillcolor="#e58139"] ;
285 -> 286 ;
287 [label="Capital-Loss <= 789.5\ngini = 0.12\nsamples = 106\nvalue = [156, 11]\nclass = I", fillcolor="#e78a47"] ;
285 -> 287 ;
288 [label="Capital-Gain <= 2994.0\ngini = 0.13\nsamples = 102\nvalue = [149, 11]\nclass = I", fillcolor="#e78a48"] ;
287 -> 288 ;
289 [label="Race <= 1.5\ngini = 0.11\nsamples = 99\nvalue = [145, 9]\nclass = I", fillcolor="#e78945"] ;
288 -> 289 ;
290 [label="Hours-Per-Week <= 24.0\ngini = 0.38\nsamples = 4\nvalue = [3, 1]\nclass = I", fillcolor="#eeab7b"] ;
289 -> 290 ;
291 [label="gini = 0.0\nsamples = 1\nvalue = [1, 0]\nclass = I", fillcolor="#e58139"] ;
290 -> 291 ;
292 [label="Occupation <= 9.0\ngini = 0.44\nsamples = 3\nvalue = [2, 1]\nclass = I", fillcolor="#f2c09c"] ;
290 -> 292 ;
293 [label="gini = 0.0\nsamples = 2\nvalue = [2, 0]\nclass = I", fillcolor="#e58139"] ;
292 -> 293 ;
294 [label="gini = 0.0\nsamples = 1\nvalue = [0, 1]\nclass = n", fillcolor="#399de5"] ;
292 -> 294 ;
295 [label="Hours-Per-Week <= 39.0\ngini = 0.1\nsamples = 95\nvalue = [142, 8]\nclass = I", fillcolor="#e68844"] ;
289 -> 295 ;
296 [label="gini = 0.0\nsamples = 7\nvalue = [15, 0]\nclass = I", fillcolor="#e58139"] ;
295 -> 296 ;
297 [label="Occupation <= 3.5\ngini = 0.11\nsamples = 88\nvalue = [127, 8]\nclass = I", fillcolor="#e78945"] ;
295 -> 297 ;
298 [label="Race <= 3.5\ngini = 0.2\nsamples = 35\nvalue = [48, 6]\nclass = I", fillcolor="#e89152"] ;
297 -> 298 ;
299 [label="gini = 0.0\nsamples = 3\nvalue = [5, 0]\nclass = I", fillcolor="#e58139"] ;
298 -> 299 ;
300 [label="Workclass <= 5.0\ngini = 0.21\nsamples = 32\nvalue = [43, 6]\nclass = I", fillcolor="#e99355"] ;
298 -> 300 ;
301 [label="Occupation <= 2.0\ngini = 0.24\nsamples = 27\nvalue = [36, 6]\nclass = I", fillcolor="#e9965a"] ;
300 -> 301 ;
302 [label="gini = 0.0\nsamples = 3\nvalue = [3, 0]\nclass = I", fillcolor="#e58139"] ;
301 -> 302 ;
303 [label="Workclass <= 3.0\ngini = 0.26\nsamples = 24\nvalue = [33, 6]\nclass = I", fillcolor="#ea985d"] ;
301 -> 303 ;
304 [label="gini = 0.0\nsamples = 1\nvalue = [1, 0]\nclass = I", fillcolor="#e58139"] ;
303 -> 304 ;
305 [label="Age <= 27.5\ngini = 0.27\nsamples = 23\nvalue = [32, 6]\nclass = I", fillcolor="#ea995e"] ;
303 -> 305 ;
306 [label="Native-Country <= 32.5\ngini = 0.18\nsamples = 18\nvalue = [27, 3]\nclass = I", fillcolor="#e88f4f"] ;
305 -> 306 ;
307 [label="gini = 0.0\nsamples = 1\nvalue = [2, 0]\nclass = I", fillcolor="#e58139"] ;
306 -> 307 ;
308 [label="Age <= 26.5\ngini = 0.19\nsamples = 17\nvalue = [25, 3]\nclass = I", fillcolor="#e89051"] ;
306 -> 308 ;
309 [label="Age <= 25.5\ngini = 0.34\nsamples = 10\nvalue = [11, 3]\nclass = I", fillcolor="#eca36f"] ;
308 -> 309 ;
310 [label="gini = 0.38\nsamples = 3\nvalue = [3, 1]\nclass = I", fillcolor="#eeab7b"] ;
309 -> 310 ;
311 [label="gini = 0.32\nsamples = 7\nvalue = [8, 2]\nclass = I", fillcolor="#eca06a"] ;
309 -> 311 ;
312 [label="gini = 0.0\nsamples = 7\nvalue = [14, 0]\nclass = I", fillcolor="#e58139"] ;
308 -> 312 ;
313 [label="Native-Country <= 35.0\ngini = 0.47\nsamples = 5\nvalue = [5, 3]\nclass = I", fillcolor="#f5cdb0"] ;
305 -> 313 ;
314 [label="gini = 0.0\nsamples = 1\nvalue = [0, 2]\nclass = n", fillcolor="#399de5"] ;
313 -> 314 ;
315 [label="gini = 0.28\nsamples = 4\nvalue = [5, 1]\nclass = I", fillcolor="#ea9a61"] ;
313 -> 315 ;
316 [label="gini = 0.0\nsamples = 5\nvalue = [7, 0]\nclass = I", fillcolor="#e58139"] ;
300 -> 316 ;
317 [label="Occupation <= 11.5\ngini = 0.05\nsamples = 53\nvalue = [79, 2]\nclass = I", fillcolor="#e6843e"] ;
297 -> 317 ;
318 [label="gini = 0.0\nsamples = 28\nvalue = [44, 0]\nclass = I", fillcolor="#e58139"] ;
317 -> 318 ;
319 [label="Race <= 3.5\ngini = 0.1\nsamples = 25\nvalue = [35, 2]\nclass = I", fillcolor="#e68844"] ;
317 -> 319 ;
320 [label="gini = 0.0\nsamples = 2\nvalue = [2, 0]\nclass = I", fillcolor="#e58139"] ;
319 -> 320 ;
321 [label="Occupation <= 12.5\ngini = 0.11\nsamples = 23\nvalue = [33, 2]\nclass = I", fillcolor="#e78945"] ;
319 -> 321 ;
322 [label="Age <= 27.0\ngini = 0.14\nsamples = 8\nvalue = [12, 1]\nclass = I", fillcolor="#e78c49"] ;
321 -> 322 ;
323 [label="gini = 0.0\nsamples = 4\nvalue = [8, 0]\nclass = I", fillcolor="#e58139"] ;
322 -> 323 ;
324 [label="gini = 0.32\nsamples = 4\nvalue = [4, 1]\nclass = I", fillcolor="#eca06a"] ;
322 -> 324 ;
325 [label="Age <= 26.5\ngini = 0.09\nsamples = 15\nvalue = [21, 1]\nclass = I", fillcolor="#e68742"] ;
321 -> 325 ;
326 [label="Age <= 25.5\ngini = 0.18\nsamples = 6\nvalue = [9, 1]\nclass = I", fillcolor="#e88f4f"] ;
325 -> 326 ;
327 [label="gini = 0.0\nsamples = 4\nvalue = [7, 0]\nclass = I", fillcolor="#e58139"] ;
326 -> 327 ;
328 [label="Occupation <= 13.5\ngini = 0.44\nsamples = 2\nvalue = [2, 1]\nclass = I", fillcolor="#f2c09c"] ;
326 -> 328 ;
329 [label="gini = 0.0\nsamples = 1\nvalue = [2, 0]\nclass = I", fillcolor="#e58139"] ;
328 -> 329 ;
330 [label="gini = 0.0\nsamples = 1\nvalue = [0, 1]\nclass = n", fillcolor="#399de5"] ;
328 -> 330 ;
331 [label="gini = 0.0\nsamples = 9\nvalue = [12, 0]\nclass = I", fillcolor="#e58139"] ;
325 -> 331 ;
332 [label="Hours-Per-Week <= 37.5\ngini = 0.44\nsamples = 3\nvalue = [4, 2]\nclass = I", fillcolor="#f2c09c"] ;
288 -> 332 ;
333 [label="gini = 0.0\nsamples = 1\nvalue = [2, 0]\nclass = I", fillcolor="#e58139"] ;
332 -> 333 ;
334 [label="Age <= 27.0\ngini = 0.5\nsamples = 2\nvalue = [2, 2]\nclass = I", fillcolor="#ffffff"] ;
332 -> 334 ;
335 [label="gini = 0.0\nsamples = 1\nvalue = [0, 2]\nclass = n", fillcolor="#399de5"] ;
334 -> 335 ;
336 [label="gini = 0.0\nsamples = 1\nvalue = [2, 0]\nclass = I", fillcolor="#e58139"] ;
334 -> 336 ;
337 [label="gini = 0.0\nsamples = 4\nvalue = [7, 0]\nclass = I", fillcolor="#e58139"] ;
287 -> 337 ;
338 [label="Education-Num <= 5.0\ngini = 0.22\nsamples = 314\nvalue = [432, 64]\nclass = I", fillcolor="#e99456"] ;
284 -> 338 ;
339 [label="gini = 0.0\nsamples = 1\nvalue = [2, 0]\nclass = I", fillcolor="#e58139"] ;
338 -> 339 ;
340 [label="Native-Country <= 39.5\ngini = 0.23\nsamples = 313\nvalue = [430, 64]\nclass = I", fillcolor="#e99456"] ;
338 -> 340 ;
341 [label="Race <= 3.5\ngini = 0.22\nsamples = 311\nvalue = [430, 62]\nclass = I", fillcolor="#e99356"] ;
340 -> 341 ;
342 [label="Age <= 31.5\ngini = 0.03\nsamples = 43\nvalue = [71, 1]\nclass = I", fillcolor="#e5833c"] ;
341 -> 342 ;
343 [label="Occupation <= 2.0\ngini = 0.07\nsamples = 19\nvalue = [26, 1]\nclass = I", fillcolor="#e68641"] ;
342 -> 343 ;
344 [label="Age <= 30.5\ngini = 0.44\nsamples = 3\nvalue = [2, 1]\nclass = I", fillcolor="#f2c09c"] ;
343 -> 344 ;
345 [label="gini = 0.0\nsamples = 1\nvalue = [1, 0]\nclass = I", fillcolor="#e58139"] ;
344 -> 345 ;
346 [label="Native-Country <= 34.5\ngini = 0.5\nsamples = 2\nvalue = [1, 1]\nclass = I", fillcolor="#ffffff"] ;
344 -> 346 ;
347 [label="gini = 0.0\nsamples = 1\nvalue = [1, 0]\nclass = I", fillcolor="#e58139"] ;
346 -> 347 ;
348 [label="gini = 0.0\nsamples = 1\nvalue = [0, 1]\nclass = n", fillcolor="#399de5"] ;
346 -> 348 ;
349 [label="gini = 0.0\nsamples = 16\nvalue = [24, 0]\nclass = I", fillcolor="#e58139"] ;
343 -> 349 ;
350 [label="gini = 0.0\nsamples = 24\nvalue = [45, 0]\nclass = I", fillcolor="#e58139"] ;
342 -> 350 ;
351 [label="Workclass <= 4.5\ngini = 0.25\nsamples = 268\nvalue = [359, 61]\nclass = I", fillcolor="#e9965b"] ;
341 -> 351 ;
352 [label="Native-Country <= 4.5\ngini = 0.21\nsamples = 228\nvalue = [317, 43]\nclass = I", fillcolor="#e99254"] ;
351 -> 352 ;
353 [label="gini = 0.0\nsamples = 5\nvalue = [9, 0]\nclass = I", fillcolor="#e58139"] ;
352 -> 353 ;
354 [label="Native-Country <= 5.5\ngini = 0.21\nsamples = 223\nvalue = [308, 43]\nclass = I", fillcolor="#e99355"] ;
352 -> 354 ;
355 [label="gini = 0.0\nsamples = 2\nvalue = [0, 2]\nclass = n", fillcolor="#399de5"] ;
354 -> 355 ;
356 [label="Occupation <= 13.5\ngini = 0.21\nsamples = 221\nvalue = [308, 41]\nclass = I", fillcolor="#e89253"] ;
354 -> 356 ;
357 [label="Occupation <= 3.5\ngini = 0.22\nsamples = 196\nvalue = [271, 38]\nclass = I", fillcolor="#e99355"] ;
356 -> 357 ;
358 [label="Native-Country <= 9.0\ngini = 0.18\nsamples = 84\nvalue = [116, 13]\nclass = I", fillcolor="#e88f4f"] ;
357 -> 358 ;
359 [label="gini = 0.0\nsamples = 2\nvalue = [2, 0]\nclass = I", fillcolor="#e58139"] ;
358 -> 359 ;
360 [label="Hours-Per-Week <= 37.5\ngini = 0.18\nsamples = 82\nvalue = [114, 13]\nclass = I", fillcolor="#e88f50"] ;
358 -> 360 ;
361 [label="gini = 0.0\nsamples = 5\nvalue = [8, 0]\nclass = I", fillcolor="#e58139"] ;
360 -> 361 ;
362 [label="Workclass <= 1.5\ngini = 0.19\nsamples = 77\nvalue = [106, 13]\nclass = I", fillcolor="#e89051"] ;
360 -> 362 ;
363 [label="Occupation <= 0.5\ngini = 0.5\nsamples = 4\nvalue = [3, 3]\nclass = I", fillcolor="#ffffff"] ;
362 -> 363 ;
364 [label="gini = 0.0\nsamples = 1\nvalue = [2, 0]\nclass = I", fillcolor="#e58139"] ;
363 -> 364 ;
365 [label="Age <= 32.0\ngini = 0.38\nsamples = 3\nvalue = [1, 3]\nclass = n", fillcolor="#7bbeee"] ;
363 -> 365 ;
366 [label="gini = 0.0\nsamples = 2\nvalue = [0, 3]\nclass = n", fillcolor="#399de5"] ;
365 -> 366 ;
367 [label="gini = 0.0\nsamples = 1\nvalue = [1, 0]\nclass = I", fillcolor="#e58139"] ;
365 -> 367 ;
368 [label="Age <= 33.5\ngini = 0.16\nsamples = 73\nvalue = [103, 10]\nclass = I", fillcolor="#e88d4c"] ;
362 -> 368 ;
369 [label="Occupation <= 2.0\ngini = 0.13\nsamples = 50\nvalue = [67, 5]\nclass = I", fillcolor="#e78a48"] ;
368 -> 369 ;
370 [label="gini = 0.0\nsamples = 5\nvalue = [5, 0]\nclass = I", fillcolor="#e58139"] ;
369 -> 370 ;
371 [label="Native-Country <= 32.5\ngini = 0.14\nsamples = 45\nvalue = [62, 5]\nclass = I", fillcolor="#e78b49"] ;
369 -> 371 ;
372 [label="gini = 0.0\nsamples = 2\nvalue = [5, 0]\nclass = I", fillcolor="#e58139"] ;
371 -> 372 ;
373 [label="Age <= 30.5\ngini = 0.15\nsamples = 43\nvalue = [57, 5]\nclass = I", fillcolor="#e78c4a"] ;
371 -> 373 ;
374 [label="Workclass <= 3.0\ngini = 0.26\nsamples = 13\nvalue = [17, 3]\nclass = I", fillcolor="#ea975c"] ;
373 -> 374 ;
375 [label="gini = 0.0\nsamples = 1\nvalue = [1, 0]\nclass = I", fillcolor="#e58139"] ;
374 -> 375 ;
376 [label="Age <= 29.5\ngini = 0.27\nsamples = 12\nvalue = [16, 3]\nclass = I", fillcolor="#ea995e"] ;
374 -> 376 ;
377 [label="gini = 0.15\nsamples = 8\nvalue = [11, 1]\nclass = I", fillcolor="#e78c4b"] ;
376 -> 377 ;
378 [label="gini = 0.41\nsamples = 4\nvalue = [5, 2]\nclass = I", fillcolor="#efb388"] ;
376 -> 378 ;
379 [label="Workclass <= 3.0\ngini = 0.09\nsamples = 30\nvalue = [40, 2]\nclass = I", fillcolor="#e68743"] ;
373 -> 379 ;
380 [label="gini = 0.0\nsamples = 3\nvalue = [5, 0]\nclass = I", fillcolor="#e58139"] ;
379 -> 380 ;
381 [label="Capital-Gain <= 1890.5\ngini = 0.1\nsamples = 27\nvalue = [35, 2]\nclass = I", fillcolor="#e68844"] ;
379 -> 381 ;
382 [label="Age <= 31.5\ngini = 0.11\nsamples = 26\nvalue = [33, 2]\nclass = I", fillcolor="#e78945"] ;
381 -> 382 ;
383 [label="gini = 0.0\nsamples = 5\nvalue = [7, 0]\nclass = I", fillcolor="#e58139"] ;
382 -> 383 ;
384 [label="Age <= 32.5\ngini = 0.13\nsamples = 21\nvalue = [26, 2]\nclass = I", fillcolor="#e78b48"] ;
382 -> 384 ;
385 [label="gini = 0.18\nsamples = 8\nvalue = [9, 1]\nclass = I", fillcolor="#e88f4f"] ;
384 -> 385 ;
386 [label="gini = 0.1\nsamples = 13\nvalue = [17, 1]\nclass = I", fillcolor="#e78845"] ;
384 -> 386 ;
387 [label="gini = 0.0\nsamples = 1\nvalue = [2, 0]\nclass = I", fillcolor="#e58139"] ;
381 -> 387 ;
388 [label="Capital-Loss <= 742.5\ngini = 0.21\nsamples = 23\nvalue = [36, 5]\nclass = I", fillcolor="#e99254"] ;
368 -> 388 ;
389 [label="Native-Country <= 25.0\ngini = 0.24\nsamples = 21\nvalue = [31, 5]\nclass = I", fillcolor="#e99559"] ;
388 -> 389 ;
390 [label="gini = 0.44\nsamples = 2\nvalue = [2, 1]\nclass = I", fillcolor="#f2c09c"] ;
389 -> 390 ;
391 [label="Capital-Gain <= 1568.5\ngini = 0.21\nsamples = 19\nvalue = [29, 4]\nclass = I", fillcolor="#e99254"] ;
389 -> 391 ;
392 [label="Workclass <= 3.0\ngini = 0.22\nsamples = 18\nvalue = [27, 4]\nclass = I", fillcolor="#e99456"] ;
391 -> 392 ;
393 [label="gini = 0.0\nsamples = 1\nvalue = [1, 0]\nclass = I", fillcolor="#e58139"] ;
392 -> 393 ;
394 [label="Occupation <= 2.0\ngini = 0.23\nsamples = 17\nvalue = [26, 4]\nclass = I", fillcolor="#e99457"] ;
392 -> 394 ;
395 [label="gini = 0.0\nsamples = 1\nvalue = [1, 0]\nclass = I", fillcolor="#e58139"] ;
394 -> 395 ;
396 [label="Age <= 34.5\ngini = 0.24\nsamples = 16\nvalue = [25, 4]\nclass = I", fillcolor="#e99559"] ;
394 -> 396 ;
397 [label="gini = 0.3\nsamples = 6\nvalue = [9, 2]\nclass = I", fillcolor="#eb9d65"] ;
396 -> 397 ;
398 [label="gini = 0.2\nsamples = 10\nvalue = [16, 2]\nclass = I", fillcolor="#e89152"] ;
396 -> 398 ;
399 [label="gini = 0.0\nsamples = 1\nvalue = [2, 0]\nclass = I", fillcolor="#e58139"] ;
391 -> 399 ;
400 [label="gini = 0.0\nsamples = 2\nvalue = [5, 0]\nclass = I", fillcolor="#e58139"] ;
388 -> 400 ;
401 [label="Age <= 31.5\ngini = 0.24\nsamples = 112\nvalue = [155, 25]\nclass = I", fillcolor="#e99559"] ;
357 -> 401 ;
402 [label="Occupation <= 4.5\ngini = 0.32\nsamples = 52\nvalue = [73, 18]\nclass = I", fillcolor="#eba06a"] ;
401 -> 402 ;
403 [label="Native-Country <= 25.0\ngini = 0.5\nsamples = 4\nvalue = [3, 3]\nclass = I", fillcolor="#ffffff"] ;
402 -> 403 ;
404 [label="gini = 0.0\nsamples = 1\nvalue = [1, 0]\nclass = I", fillcolor="#e58139"] ;
403 -> 404 ;
405 [label="Age <= 30.5\ngini = 0.48\nsamples = 3\nvalue = [2, 3]\nclass = n", fillcolor="#bddef6"] ;
403 -> 405 ;
406 [label="gini = 0.0\nsamples = 1\nvalue = [2, 0]\nclass = I", fillcolor="#e58139"] ;
405 -> 406 ;
407 [label="gini = 0.0\nsamples = 2\nvalue = [0, 3]\nclass = n", fillcolor="#399de5"] ;
405 -> 407 ;
408 [label="Native-Country <= 32.5\ngini = 0.29\nsamples = 48\nvalue = [70, 15]\nclass = I", fillcolor="#eb9c63"] ;
402 -> 408 ;
409 [label="gini = 0.0\nsamples = 1\nvalue = [1, 0]\nclass = I", fillcolor="#e58139"] ;
408 -> 409 ;
410 [label="Capital-Gain <= 1414.5\ngini = 0.29\nsamples = 47\nvalue = [69, 15]\nclass = I", fillcolor="#eb9c64"] ;
408 -> 410 ;
411 [label="Workclass <= 3.0\ngini = 0.32\nsamples = 42\nvalue = [59, 15]\nclass = I", fillcolor="#eca16b"] ;
410 -> 411 ;
412 [label="Age <= 30.5\ngini = 0.48\nsamples = 3\nvalue = [3, 2]\nclass = I", fillcolor="#f6d5bd"] ;
411 -> 412 ;
413 [label="gini = 0.0\nsamples = 2\nvalue = [0, 2]\nclass = n", fillcolor="#399de5"] ;
412 -> 413 ;
414 [label="gini = 0.0\nsamples = 1\nvalue = [3, 0]\nclass = I", fillcolor="#e58139"] ;
412 -> 414 ;
415 [label="Occupation <= 10.5\ngini = 0.31\nsamples = 39\nvalue = [56, 13]\nclass = I", fillcolor="#eb9e67"] ;
411 -> 415 ;
416 [label="Occupation <= 9.0\ngini = 0.33\nsamples = 33\nvalue = [45, 12]\nclass = I", fillcolor="#eca36e"] ;
415 -> 416 ;
417 [label="Capital-Loss <= 786.5\ngini = 0.3\nsamples = 32\nvalue = [45, 10]\nclass = I", fillcolor="#eb9d65"] ;
416 -> 417 ;
418 [label="Hours-Per-Week <= 39.0\ngini = 0.31\nsamples = 31\nvalue = [42, 10]\nclass = I", fillcolor="#eb9f68"] ;
417 -> 418 ;
419 [label="gini = 0.0\nsamples = 1\nvalue = [3, 0]\nclass = I", fillcolor="#e58139"] ;
418 -> 419 ;
420 [label="Occupation <= 7.5\ngini = 0.32\nsamples = 30\nvalue = [39, 10]\nclass = I", fillcolor="#eca16c"] ;
418 -> 420 ;
421 [label="Occupation <= 5.5\ngini = 0.35\nsamples = 27\nvalue = [35, 10]\nclass = I", fillcolor="#eca572"] ;
420 -> 421 ;
422 [label="gini = 0.0\nsamples = 1\nvalue = [1, 0]\nclass = I", fillcolor="#e58139"] ;
421 -> 422 ;
423 [label="Age <= 30.5\ngini = 0.35\nsamples = 26\nvalue = [34, 10]\nclass = I", fillcolor="#eda673"] ;
421 -> 423 ;
424 [label="Age <= 29.5\ngini = 0.3\nsamples = 20\nvalue = [26, 6]\nclass = I", fillcolor="#eb9e67"] ;
423 -> 424 ;
425 [label="gini = 0.24\nsamples = 9\nvalue = [12, 2]\nclass = I", fillcolor="#e9965a"] ;
424 -> 425 ;
426 [label="Occupation <= 6.5\ngini = 0.35\nsamples = 11\nvalue = [14, 4]\nclass = I", fillcolor="#eca572"] ;
424 -> 426 ;
427 [label="gini = 0.47\nsamples = 5\nvalue = [5, 3]\nclass = I", fillcolor="#f5cdb0"] ;
426 -> 427 ;
428 [label="gini = 0.18\nsamples = 6\nvalue = [9, 1]\nclass = I", fillcolor="#e88f4f"] ;
426 -> 428 ;
429 [label="Occupation <= 6.5\ngini = 0.44\nsamples = 6\nvalue = [8, 4]\nclass = I", fillcolor="#f2c09c"] ;
423 -> 429 ;
430 [label="gini = 0.0\nsamples = 3\nvalue = [3, 0]\nclass = I", fillcolor="#e58139"] ;
429 -> 430 ;
431 [label="gini = 0.49\nsamples = 3\nvalue = [5, 4]\nclass = I", fillcolor="#fae6d7"] ;
429 -> 431 ;
432 [label="gini = 0.0\nsamples = 3\nvalue = [4, 0]\nclass = I", fillcolor="#e58139"] ;
420 -> 432 ;
433 [label="gini = 0.0\nsamples = 1\nvalue = [3, 0]\nclass = I", fillcolor="#e58139"] ;
417 -> 433 ;
434 [label="gini = 0.0\nsamples = 1\nvalue = [0, 2]\nclass = n", fillcolor="#399de5"] ;
416 -> 434 ;
435 [label="Age <= 29.5\ngini = 0.15\nsamples = 6\nvalue = [11, 1]\nclass = I", fillcolor="#e78c4b"] ;
415 -> 435 ;
436 [label="gini = 0.0\nsamples = 1\nvalue = [2, 0]\nclass = I", fillcolor="#e58139"] ;
435 -> 436 ;
437 [label="Occupation <= 12.5\ngini = 0.18\nsamples = 5\nvalue = [9, 1]\nclass = I", fillcolor="#e88f4f"] ;
435 -> 437 ;
438 [label="gini = 0.0\nsamples = 3\nvalue = [5, 0]\nclass = I", fillcolor="#e58139"] ;
437 -> 438 ;
439 [label="gini = 0.32\nsamples = 2\nvalue = [4, 1]\nclass = I", fillcolor="#eca06a"] ;
437 -> 439 ;
440 [label="gini = 0.0\nsamples = 5\nvalue = [10, 0]\nclass = I", fillcolor="#e58139"] ;
410 -> 440 ;
441 [label="Hours-Per-Week <= 37.5\ngini = 0.14\nsamples = 60\nvalue = [82, 7]\nclass = I", fillcolor="#e78c4a"] ;
401 -> 441 ;
442 [label="gini = 0.0\nsamples = 5\nvalue = [6, 0]\nclass = I", fillcolor="#e58139"] ;
441 -> 442 ;
443 [label="Occupation <= 6.5\ngini = 0.15\nsamples = 55\nvalue = [76, 7]\nclass = I", fillcolor="#e78d4b"] ;
441 -> 443 ;
444 [label="gini = 0.0\nsamples = 14\nvalue = [18, 0]\nclass = I", fillcolor="#e58139"] ;
443 -> 444 ;
445 [label="Age <= 32.5\ngini = 0.19\nsamples = 41\nvalue = [58, 7]\nclass = I", fillcolor="#e89051"] ;
443 -> 445 ;
446 [label="gini = 0.0\nsamples = 10\nvalue = [17, 0]\nclass = I", fillcolor="#e58139"] ;
445 -> 446 ;
447 [label="Workclass <= 3.0\ngini = 0.25\nsamples = 31\nvalue = [41, 7]\nclass = I", fillcolor="#e9975b"] ;
445 -> 447 ;
448 [label="gini = 0.0\nsamples = 1\nvalue = [1, 0]\nclass = I", fillcolor="#e58139"] ;
447 -> 448 ;
449 [label="Native-Country <= 23.0\ngini = 0.25\nsamples = 30\nvalue = [40, 7]\nclass = I", fillcolor="#ea975c"] ;
447 -> 449 ;
450 [label="gini = 0.0\nsamples = 1\nvalue = [1, 0]\nclass = I", fillcolor="#e58139"] ;
449 -> 450 ;
451 [label="Occupation <= 12.5\ngini = 0.26\nsamples = 29\nvalue = [39, 7]\nclass = I", fillcolor="#ea985d"] ;
449 -> 451 ;
452 [label="Occupation <= 11.0\ngini = 0.27\nsamples = 27\nvalue = [37, 7]\nclass = I", fillcolor="#ea995e"] ;
451 -> 452 ;
453 [label="Occupation <= 9.0\ngini = 0.24\nsamples = 23\nvalue = [31, 5]\nclass = I", fillcolor="#e99559"] ;
452 -> 453 ;
454 [label="Age <= 34.5\ngini = 0.25\nsamples = 22\nvalue = [29, 5]\nclass = I", fillcolor="#e9975b"] ;
453 -> 454 ;
455 [label="Age <= 33.5\ngini = 0.34\nsamples = 15\nvalue = [18, 5]\nclass = I", fillcolor="#eca470"] ;
454 -> 455 ;
456 [label="Occupation <= 7.5\ngini = 0.28\nsamples = 8\nvalue = [10, 2]\nclass = I", fillcolor="#ea9a61"] ;
455 -> 456 ;
457 [label="gini = 0.41\nsamples = 6\nvalue = [5, 2]\nclass = I", fillcolor="#efb388"] ;
456 -> 457 ;
458 [label="gini = 0.0\nsamples = 2\nvalue = [5, 0]\nclass = I", fillcolor="#e58139"] ;
456 -> 458 ;
459 [label="Occupation <= 7.5\ngini = 0.4\nsamples = 7\nvalue = [8, 3]\nclass = I", fillcolor="#efb083"] ;
455 -> 459 ;
460 [label="gini = 0.38\nsamples = 5\nvalue = [6, 2]\nclass = I", fillcolor="#eeab7b"] ;
459 -> 460 ;
461 [label="gini = 0.44\nsamples = 2\nvalue = [2, 1]\nclass = I", fillcolor="#f2c09c"] ;
459 -> 461 ;
462 [label="gini = 0.0\nsamples = 7\nvalue = [11, 0]\nclass = I", fillcolor="#e58139"] ;
454 -> 462 ;
463 [label="gini = 0.0\nsamples = 1\nvalue = [2, 0]\nclass = I", fillcolor="#e58139"] ;
453 -> 463 ;
464 [label="Age <= 33.5\ngini = 0.38\nsamples = 4\nvalue = [6, 2]\nclass = I", fillcolor="#eeab7b"] ;
452 -> 464 ;
465 [label="gini = 0.44\nsamples = 2\nvalue = [1, 2]\nclass = n", fillcolor="#9ccef2"] ;
464 -> 465 ;
466 [label="gini = 0.0\nsamples = 2\nvalue = [5, 0]\nclass = I", fillcolor="#e58139"] ;
464 -> 466 ;
467 [label="gini = 0.0\nsamples = 2\nvalue = [2, 0]\nclass = I", fillcolor="#e58139"] ;
451 -> 467 ;
468 [label="Age <= 32.5\ngini = 0.14\nsamples = 25\nvalue = [37, 3]\nclass = I", fillcolor="#e78b49"] ;
356 -> 468 ;
469 [label="Capital-Gain <= 2506.5\ngini = 0.24\nsamples = 13\nvalue = [19, 3]\nclass = I", fillcolor="#e99558"] ;
468 -> 469 ;
470 [label="Hours-Per-Week <= 29.0\ngini = 0.24\nsamples = 12\nvalue = [18, 3]\nclass = I", fillcolor="#e9965a"] ;
469 -> 470 ;
471 [label="gini = 0.0\nsamples = 1\nvalue = [0, 3]\nclass = n", fillcolor="#399de5"] ;
470 -> 471 ;
472 [label="gini = 0.0\nsamples = 11\nvalue = [18, 0]\nclass = I", fillcolor="#e58139"] ;
470 -> 472 ;
473 [label="gini = 0.0\nsamples = 1\nvalue = [1, 0]\nclass = I", fillcolor="#e58139"] ;
469 -> 473 ;
474 [label="gini = 0.0\nsamples = 12\nvalue = [18, 0]\nclass = I", fillcolor="#e58139"] ;
468 -> 474 ;
475 [label="Age <= 33.5\ngini = 0.42\nsamples = 40\nvalue = [42, 18]\nclass = I", fillcolor="#f0b78e"] ;
351 -> 475 ;
476 [label="Age <= 29.5\ngini = 0.36\nsamples = 28\nvalue = [32, 10]\nclass = I", fillcolor="#eda877"] ;
475 -> 476 ;
477 [label="gini = 0.0\nsamples = 4\nvalue = [5, 0]\nclass = I", fillcolor="#e58139"] ;
476 -> 477 ;
478 [label="Age <= 31.5\ngini = 0.39\nsamples = 24\nvalue = [27, 10]\nclass = I", fillcolor="#efb082"] ;
476 -> 478 ;
479 [label="Hours-Per-Week <= 32.5\ngini = 0.5\nsamples = 7\nvalue = [6, 5]\nclass = I", fillcolor="#fbeade"] ;
478 -> 479 ;
480 [label="gini = 0.0\nsamples = 1\nvalue = [1, 0]\nclass = I", fillcolor="#e58139"] ;
479 -> 480 ;
481 [label="Age <= 30.5\ngini = 0.5\nsamples = 6\nvalue = [5, 5]\nclass = I", fillcolor="#ffffff"] ;
479 -> 481 ;
482 [label="gini = 0.0\nsamples = 1\nvalue = [0, 2]\nclass = n", fillcolor="#399de5"] ;
481 -> 482 ;
483 [label="Occupation <= 4.5\ngini = 0.47\nsamples = 5\nvalue = [5, 3]\nclass = I", fillcolor="#f5cdb0"] ;
481 -> 483 ;
484 [label="Occupation <= 3.5\ngini = 0.48\nsamples = 3\nvalue = [2, 3]\nclass = n", fillcolor="#bddef6"] ;
483 -> 484 ;
485 [label="gini = 0.0\nsamples = 1\nvalue = [0, 1]\nclass = n", fillcolor="#399de5"] ;
484 -> 485 ;
486 [label="Workclass <= 5.5\ngini = 0.5\nsamples = 2\nvalue = [2, 2]\nclass = I", fillcolor="#ffffff"] ;
484 -> 486 ;
487 [label="gini = 0.0\nsamples = 1\nvalue = [2, 0]\nclass = I", fillcolor="#e58139"] ;
486 -> 487 ;
488 [label="gini = 0.0\nsamples = 1\nvalue = [0, 2]\nclass = n", fillcolor="#399de5"] ;
486 -> 488 ;
489 [label="gini = 0.0\nsamples = 2\nvalue = [3, 0]\nclass = I", fillcolor="#e58139"] ;
483 -> 489 ;
490 [label="Hours-Per-Week <= 38.5\ngini = 0.31\nsamples = 17\nvalue = [21, 5]\nclass = I", fillcolor="#eb9f68"] ;
478 -> 490 ;
491 [label="gini = 0.0\nsamples = 3\nvalue = [7, 0]\nclass = I", fillcolor="#e58139"] ;
490 -> 491 ;
492 [label="Workclass <= 5.5\ngini = 0.39\nsamples = 14\nvalue = [14, 5]\nclass = I", fillcolor="#eeae80"] ;
490 -> 492 ;
493 [label="gini = 0.0\nsamples = 1\nvalue = [0, 2]\nclass = n", fillcolor="#399de5"] ;
492 -> 493 ;
494 [label="Age <= 32.5\ngini = 0.29\nsamples = 13\nvalue = [14, 3]\nclass = I", fillcolor="#eb9c63"] ;
492 -> 494 ;
495 [label="Workclass <= 6.5\ngini = 0.32\nsamples = 4\nvalue = [4, 1]\nclass = I", fillcolor="#eca06a"] ;
494 -> 495 ;
496 [label="gini = 0.0\nsamples = 1\nvalue = [1, 0]\nclass = I", fillcolor="#e58139"] ;
495 -> 496 ;
497 [label="Occupation <= 12.5\ngini = 0.38\nsamples = 3\nvalue = [3, 1]\nclass = I", fillcolor="#eeab7b"] ;
495 -> 497 ;
498 [label="gini = 0.0\nsamples = 2\nvalue = [3, 0]\nclass = I", fillcolor="#e58139"] ;
497 -> 498 ;
499 [label="gini = 0.0\nsamples = 1\nvalue = [0, 1]\nclass = n", fillcolor="#399de5"] ;
497 -> 499 ;
500 [label="Workclass <= 6.5\ngini = 0.28\nsamples = 9\nvalue = [10, 2]\nclass = I", fillcolor="#ea9a61"] ;
494 -> 500 ;
501 [label="Occupation <= 3.5\ngini = 0.2\nsamples = 6\nvalue = [8, 1]\nclass = I", fillcolor="#e89152"] ;
500 -> 501 ;
502 [label="gini = 0.22\nsamples = 5\nvalue = [7, 1]\nclass = I", fillcolor="#e99355"] ;
501 -> 502 ;
503 [label="gini = 0.0\nsamples = 1\nvalue = [1, 0]\nclass = I", fillcolor="#e58139"] ;
501 -> 503 ;
504 [label="Occupation <= 5.5\ngini = 0.44\nsamples = 3\nvalue = [2, 1]\nclass = I", fillcolor="#f2c09c"] ;
500 -> 504 ;
505 [label="gini = 0.5\nsamples = 2\nvalue = [1, 1]\nclass = I", fillcolor="#ffffff"] ;
504 -> 505 ;
506 [label="gini = 0.0\nsamples = 1\nvalue = [1, 0]\nclass = I", fillcolor="#e58139"] ;
504 -> 506 ;
507 [label="Workclass <= 6.5\ngini = 0.49\nsamples = 12\nvalue = [10, 8]\nclass = I", fillcolor="#fae6d7"] ;
475 -> 507 ;
508 [label="Hours-Per-Week <= 37.5\ngini = 0.44\nsamples = 8\nvalue = [8, 4]\nclass = I", fillcolor="#f2c09c"] ;
507 -> 508 ;
509 [label="gini = 0.0\nsamples = 2\nvalue = [5, 0]\nclass = I", fillcolor="#e58139"] ;
508 -> 509 ;
510 [label="Age <= 34.5\ngini = 0.49\nsamples = 6\nvalue = [3, 4]\nclass = n", fillcolor="#cee6f8"] ;
508 -> 510 ;
511 [label="Workclass <= 5.5\ngini = 0.32\nsamples = 4\nvalue = [1, 4]\nclass = n", fillcolor="#6ab6ec"] ;
510 -> 511 ;
512 [label="gini = 0.0\nsamples = 1\nvalue = [0, 1]\nclass = n", fillcolor="#399de5"] ;
511 -> 512 ;
513 [label="Occupation <= 3.5\ngini = 0.38\nsamples = 3\nvalue = [1, 3]\nclass = n", fillcolor="#7bbeee"] ;
511 -> 513 ;
514 [label="gini = 0.0\nsamples = 2\nvalue = [0, 3]\nclass = n", fillcolor="#399de5"] ;
513 -> 514 ;
515 [label="gini = 0.0\nsamples = 1\nvalue = [1, 0]\nclass = I", fillcolor="#e58139"] ;
513 -> 515 ;
516 [label="gini = 0.0\nsamples = 2\nvalue = [2, 0]\nclass = I", fillcolor="#e58139"] ;
510 -> 516 ;
517 [label="Capital-Loss <= 1568.0\ngini = 0.44\nsamples = 4\nvalue = [2, 4]\nclass = n", fillcolor="#9ccef2"] ;
507 -> 517 ;
518 [label="Occupation <= 7.0\ngini = 0.32\nsamples = 3\nvalue = [1, 4]\nclass = n", fillcolor="#6ab6ec"] ;
517 -> 518 ;
519 [label="Capital-Loss <= 742.5\ngini = 0.5\nsamples = 2\nvalue = [1, 1]\nclass = I", fillcolor="#ffffff"] ;
518 -> 519 ;
520 [label="gini = 0.0\nsamples = 1\nvalue = [1, 0]\nclass = I", fillcolor="#e58139"] ;
519 -> 520 ;
521 [label="gini = 0.0\nsamples = 1\nvalue = [0, 1]\nclass = n", fillcolor="#399de5"] ;
519 -> 521 ;
522 [label="gini = 0.0\nsamples = 1\nvalue = [0, 3]\nclass = n", fillcolor="#399de5"] ;
518 -> 522 ;
523 [label="gini = 0.0\nsamples = 1\nvalue = [1, 0]\nclass = I", fillcolor="#e58139"] ;
517 -> 523 ;
524 [label="gini = 0.0\nsamples = 2\nvalue = [0, 2]\nclass = n", fillcolor="#399de5"] ;
340 -> 524 ;
525 [label="Capital-Gain <= 4225.0\ngini = 0.33\nsamples = 366\nvalue = [473, 124]\nclass = I", fillcolor="#eca26d"] ;
283 -> 525 ;
526 [label="Workclass <= 5.5\ngini = 0.32\nsamples = 364\nvalue = [473, 119]\nclass = I", fillcolor="#eca16b"] ;
525 -> 526 ;
527 [label="Age <= 24.5\ngini = 0.34\nsamples = 323\nvalue = [417, 116]\nclass = I", fillcolor="#eca470"] ;
526 -> 527 ;
528 [label="Education <= 11.5\ngini = 0.11\nsamples = 41\nvalue = [63, 4]\nclass = I", fillcolor="#e78946"] ;
527 -> 528 ;
529 [label="gini = 0.0\nsamples = 9\nvalue = [13, 0]\nclass = I", fillcolor="#e58139"] ;
528 -> 529 ;
530 [label="Occupation <= 2.0\ngini = 0.14\nsamples = 32\nvalue = [50, 4]\nclass = I", fillcolor="#e78b49"] ;
528 -> 530 ;
531 [label="Occupation <= 0.5\ngini = 0.47\nsamples = 5\nvalue = [5, 3]\nclass = I", fillcolor="#f5cdb0"] ;
530 -> 531 ;
532 [label="gini = 0.0\nsamples = 2\nvalue = [2, 0]\nclass = I", fillcolor="#e58139"] ;
531 -> 532 ;
533 [label="Hours-Per-Week <= 27.5\ngini = 0.5\nsamples = 3\nvalue = [3, 3]\nclass = I", fillcolor="#ffffff"] ;
531 -> 533 ;
534 [label="gini = 0.0\nsamples = 1\nvalue = [1, 0]\nclass = I", fillcolor="#e58139"] ;
533 -> 534 ;
535 [label="Age <= 23.5\ngini = 0.48\nsamples = 2\nvalue = [2, 3]\nclass = n", fillcolor="#bddef6"] ;
533 -> 535 ;
536 [label="gini = 0.0\nsamples = 1\nvalue = [0, 3]\nclass = n", fillcolor="#399de5"] ;
535 -> 536 ;
537 [label="gini = 0.0\nsamples = 1\nvalue = [2, 0]\nclass = I", fillcolor="#e58139"] ;
535 -> 537 ;
538 [label="Capital-Gain <= 1203.5\ngini = 0.04\nsamples = 27\nvalue = [45, 1]\nclass = I", fillcolor="#e6843d"] ;
530 -> 538 ;
539 [label="Occupation <= 13.5\ngini = 0.05\nsamples = 25\nvalue = [41, 1]\nclass = I", fillcolor="#e6843e"] ;
538 -> 539 ;
540 [label="gini = 0.0\nsamples = 23\nvalue = [40, 0]\nclass = I", fillcolor="#e58139"] ;
539 -> 540 ;
541 [label="Hours-Per-Week <= 32.0\ngini = 0.5\nsamples = 2\nvalue = [1, 1]\nclass = I", fillcolor="#ffffff"] ;
539 -> 541 ;
542 [label="gini = 0.0\nsamples = 1\nvalue = [1, 0]\nclass = I", fillcolor="#e58139"] ;
541 -> 542 ;
543 [label="gini = 0.0\nsamples = 1\nvalue = [0, 1]\nclass = n", fillcolor="#399de5"] ;
541 -> 543 ;
544 [label="gini = 0.0\nsamples = 2\nvalue = [4, 0]\nclass = I", fillcolor="#e58139"] ;
538 -> 544 ;
545 [label="Education-Num <= 10.5\ngini = 0.37\nsamples = 282\nvalue = [354, 112]\nclass = I", fillcolor="#eda978"] ;
527 -> 545 ;
546 [label="Workclass <= 1.5\ngini = 0.39\nsamples = 204\nvalue = [246, 90]\nclass = I", fillcolor="#efaf81"] ;
545 -> 546 ;
547 [label="Capital-Loss <= 209.5\ngini = 0.5\nsamples = 10\nvalue = [7, 8]\nclass = n", fillcolor="#e6f3fc"] ;
546 -> 547 ;
548 [label="Workclass <= 0.5\ngini = 0.44\nsamples = 9\nvalue = [4, 8]\nclass = n", fillcolor="#9ccef2"] ;
547 -> 548 ;
549 [label="Native-Country <= 34.5\ngini = 0.44\nsamples = 2\nvalue = [2, 1]\nclass = I", fillcolor="#f2c09c"] ;
548 -> 549 ;
550 [label="gini = 0.0\nsamples = 1\nvalue = [0, 1]\nclass = n", fillcolor="#399de5"] ;
549 -> 550 ;
551 [label="gini = 0.0\nsamples = 1\nvalue = [2, 0]\nclass = I", fillcolor="#e58139"] ;
549 -> 551 ;
552 [label="Race <= 3.0\ngini = 0.35\nsamples = 7\nvalue = [2, 7]\nclass = n", fillcolor="#72b9ec"] ;
548 -> 552 ;
553 [label="Age <= 30.0\ngini = 0.5\nsamples = 4\nvalue = [2, 2]\nclass = I", fillcolor="#ffffff"] ;
552 -> 553 ;
554 [label="gini = 0.0\nsamples = 2\nvalue = [2, 0]\nclass = I", fillcolor="#e58139"] ;
553 -> 554 ;
555 [label="gini = 0.0\nsamples = 2\nvalue = [0, 2]\nclass = n", fillcolor="#399de5"] ;
553 -> 555 ;
556 [label="gini = 0.0\nsamples = 3\nvalue = [0, 5]\nclass = n", fillcolor="#399de5"] ;
552 -> 556 ;
557 [label="gini = 0.0\nsamples = 1\nvalue = [3, 0]\nclass = I", fillcolor="#e58139"] ;
547 -> 557 ;
558 [label="Native-Country <= 36.0\ngini = 0.38\nsamples = 194\nvalue = [239, 82]\nclass = I", fillcolor="#eeac7d"] ;
546 -> 558 ;
559 [label="Race <= 1.5\ngini = 0.24\nsamples = 19\nvalue = [30, 5]\nclass = I", fillcolor="#e9965a"] ;
558 -> 559 ;
560 [label="Occupation <= 3.5\ngini = 0.47\nsamples = 7\nvalue = [5, 3]\nclass = I", fillcolor="#f5cdb0"] ;
559 -> 560 ;
561 [label="Age <= 30.5\ngini = 0.44\nsamples = 2\nvalue = [1, 2]\nclass = n", fillcolor="#9ccef2"] ;
560 -> 561 ;
562 [label="gini = 0.0\nsamples = 1\nvalue = [0, 2]\nclass = n", fillcolor="#399de5"] ;
561 -> 562 ;
563 [label="gini = 0.0\nsamples = 1\nvalue = [1, 0]\nclass = I", fillcolor="#e58139"] ;
561 -> 563 ;
564 [label="Native-Country <= 15.5\ngini = 0.32\nsamples = 5\nvalue = [4, 1]\nclass = I", fillcolor="#eca06a"] ;
560 -> 564 ;
565 [label="Occupation <= 12.0\ngini = 0.5\nsamples = 2\nvalue = [1, 1]\nclass = I", fillcolor="#ffffff"] ;
564 -> 565 ;
566 [label="gini = 0.0\nsamples = 1\nvalue = [0, 1]\nclass = n", fillcolor="#399de5"] ;
565 -> 566 ;
567 [label="gini = 0.0\nsamples = 1\nvalue = [1, 0]\nclass = I", fillcolor="#e58139"] ;
565 -> 567 ;
568 [label="gini = 0.0\nsamples = 3\nvalue = [3, 0]\nclass = I", fillcolor="#e58139"] ;
564 -> 568 ;
569 [label="Occupation <= 11.5\ngini = 0.14\nsamples = 12\nvalue = [25, 2]\nclass = I", fillcolor="#e78b49"] ;
559 -> 569 ;
570 [label="gini = 0.0\nsamples = 9\nvalue = [22, 0]\nclass = I", fillcolor="#e58139"] ;
569 -> 570 ;
571 [label="Race <= 3.0\ngini = 0.48\nsamples = 3\nvalue = [3, 2]\nclass = I", fillcolor="#f6d5bd"] ;
569 -> 571 ;
572 [label="gini = 0.0\nsamples = 1\nvalue = [1, 0]\nclass = I", fillcolor="#e58139"] ;
571 -> 572 ;
573 [label="Age <= 28.0\ngini = 0.5\nsamples = 2\nvalue = [2, 2]\nclass = I", fillcolor="#ffffff"] ;
571 -> 573 ;
574 [label="gini = 0.0\nsamples = 1\nvalue = [2, 0]\nclass = I", fillcolor="#e58139"] ;
573 -> 574 ;
575 [label="gini = 0.0\nsamples = 1\nvalue = [0, 2]\nclass = n", fillcolor="#399de5"] ;
573 -> 575 ;
576 [label="Race <= 1.5\ngini = 0.39\nsamples = 175\nvalue = [209, 77]\nclass = I", fillcolor="#efaf82"] ;
558 -> 576 ;
577 [label="gini = 0.0\nsamples = 3\nvalue = [5, 0]\nclass = I", fillcolor="#e58139"] ;
576 -> 577 ;
578 [label="Race <= 3.0\ngini = 0.4\nsamples = 172\nvalue = [204, 77]\nclass = I", fillcolor="#efb184"] ;
576 -> 578 ;
579 [label="Hours-Per-Week <= 37.5\ngini = 0.38\nsamples = 8\nvalue = [9, 3]\nclass = I", fillcolor="#eeab7b"] ;
578 -> 579 ;
580 [label="gini = 0.0\nsamples = 1\nvalue = [2, 0]\nclass = I", fillcolor="#e58139"] ;
579 -> 580 ;
581 [label="Occupation <= 2.0\ngini = 0.42\nsamples = 7\nvalue = [7, 3]\nclass = I", fillcolor="#f0b78e"] ;
579 -> 581 ;
582 [label="gini = 0.0\nsamples = 1\nvalue = [0, 1]\nclass = n", fillcolor="#399de5"] ;
581 -> 582 ;
583 [label="Occupation <= 10.0\ngini = 0.35\nsamples = 6\nvalue = [7, 2]\nclass = I", fillcolor="#eca572"] ;
581 -> 583 ;
584 [label="Age <= 28.5\ngini = 0.22\nsamples = 5\nvalue = [7, 1]\nclass = I", fillcolor="#e99355"] ;
583 -> 584 ;
585 [label="gini = 0.0\nsamples = 2\nvalue = [4, 0]\nclass = I", fillcolor="#e58139"] ;
584 -> 585 ;
586 [label="Occupation <= 5.5\ngini = 0.38\nsamples = 3\nvalue = [3, 1]\nclass = I", fillcolor="#eeab7b"] ;
584 -> 586 ;
587 [label="Age <= 32.0\ngini = 0.5\nsamples = 2\nvalue = [1, 1]\nclass = I", fillcolor="#ffffff"] ;
586 -> 587 ;
588 [label="gini = 0.0\nsamples = 1\nvalue = [0, 1]\nclass = n", fillcolor="#399de5"] ;
587 -> 588 ;
589 [label="gini = 0.0\nsamples = 1\nvalue = [1, 0]\nclass = I", fillcolor="#e58139"] ;
587 -> 589 ;
590 [label="gini = 0.0\nsamples = 1\nvalue = [2, 0]\nclass = I", fillcolor="#e58139"] ;
586 -> 590 ;
591 [label="gini = 0.0\nsamples = 1\nvalue = [0, 1]\nclass = n", fillcolor="#399de5"] ;
583 -> 591 ;
592 [label="Occupation <= 9.0\ngini = 0.4\nsamples = 164\nvalue = [195, 74]\nclass = I", fillcolor="#efb184"] ;
578 -> 592 ;
593 [label="Capital-Loss <= 1532.0\ngini = 0.35\nsamples = 112\nvalue = [146, 42]\nclass = I", fillcolor="#eca572"] ;
592 -> 593 ;
594 [label="Hours-Per-Week <= 39.5\ngini = 0.36\nsamples = 105\nvalue = [138, 42]\nclass = I", fillcolor="#eda775"] ;
593 -> 594 ;
595 [label="gini = 0.0\nsamples = 10\nvalue = [21, 0]\nclass = I", fillcolor="#e58139"] ;
594 -> 595 ;
596 [label="Workclass <= 3.0\ngini = 0.39\nsamples = 95\nvalue = [117, 42]\nclass = I", fillcolor="#eeae80"] ;
594 -> 596 ;
597 [label="Age <= 27.5\ngini = 0.43\nsamples = 8\nvalue = [9, 4]\nclass = I", fillcolor="#f1b991"] ;
596 -> 597 ;
598 [label="Occupation <= 6.0\ngini = 0.49\nsamples = 2\nvalue = [3, 4]\nclass = n", fillcolor="#cee6f8"] ;
597 -> 598 ;
599 [label="gini = 0.0\nsamples = 1\nvalue = [0, 4]\nclass = n", fillcolor="#399de5"] ;
598 -> 599 ;
600 [label="gini = 0.0\nsamples = 1\nvalue = [3, 0]\nclass = I", fillcolor="#e58139"] ;
598 -> 600 ;
601 [label="gini = 0.0\nsamples = 6\nvalue = [6, 0]\nclass = I", fillcolor="#e58139"] ;
597 -> 601 ;
602 [label="Capital-Loss <= 742.5\ngini = 0.39\nsamples = 87\nvalue = [108, 38]\nclass = I", fillcolor="#eead7f"] ;
596 -> 602 ;
603 [label="Occupation <= 2.0\ngini = 0.37\nsamples = 86\nvalue = [108, 35]\nclass = I", fillcolor="#edaa79"] ;
602 -> 603 ;
604 [label="Age <= 25.5\ngini = 0.5\nsamples = 10\nvalue = [7, 8]\nclass = n", fillcolor="#e6f3fc"] ;
603 -> 604 ;
605 [label="gini = 0.0\nsamples = 1\nvalue = [2, 0]\nclass = I", fillcolor="#e58139"] ;
604 -> 605 ;
606 [label="Age <= 29.0\ngini = 0.47\nsamples = 9\nvalue = [5, 8]\nclass = n", fillcolor="#b5daf5"] ;
604 -> 606 ;
607 [label="Age <= 27.0\ngini = 0.38\nsamples = 4\nvalue = [2, 6]\nclass = n", fillcolor="#7bbeee"] ;
606 -> 607 ;
608 [label="gini = 0.44\nsamples = 3\nvalue = [2, 4]\nclass = n", fillcolor="#9ccef2"] ;
607 -> 608 ;
609 [label="gini = 0.0\nsamples = 1\nvalue = [0, 2]\nclass = n", fillcolor="#399de5"] ;
607 -> 609 ;
610 [label="Age <= 32.5\ngini = 0.48\nsamples = 5\nvalue = [3, 2]\nclass = I", fillcolor="#f6d5bd"] ;
606 -> 610 ;
611 [label="Age <= 30.5\ngini = 0.38\nsamples = 4\nvalue = [3, 1]\nclass = I", fillcolor="#eeab7b"] ;
610 -> 611 ;
612 [label="gini = 0.5\nsamples = 2\nvalue = [1, 1]\nclass = I", fillcolor="#ffffff"] ;
611 -> 612 ;
613 [label="gini = 0.0\nsamples = 2\nvalue = [2, 0]\nclass = I", fillcolor="#e58139"] ;
611 -> 613 ;
614 [label="gini = 0.0\nsamples = 1\nvalue = [0, 1]\nclass = n", fillcolor="#399de5"] ;
610 -> 614 ;
615 [label="Capital-Gain <= 1203.5\ngini = 0.33\nsamples = 76\nvalue = [101, 27]\nclass = I", fillcolor="#eca36e"] ;
603 -> 615 ;
616 [label="Age <= 30.5\ngini = 0.35\nsamples = 72\nvalue = [94, 27]\nclass = I", fillcolor="#eca572"] ;
615 -> 616 ;
617 [label="Occupation <= 5.5\ngini = 0.18\nsamples = 30\nvalue = [46, 5]\nclass = I", fillcolor="#e88f4f"] ;
616 -> 617 ;
618 [label="Occupation <= 3.5\ngini = 0.14\nsamples = 16\nvalue = [25, 2]\nclass = I", fillcolor="#e78b49"] ;
617 -> 618 ;
619 [label="Age <= 28.5\ngini = 0.17\nsamples = 13\nvalue = [20, 2]\nclass = I", fillcolor="#e88e4d"] ;
618 -> 619 ;
620 [label="Age <= 27.5\ngini = 0.23\nsamples = 9\nvalue = [13, 2]\nclass = I", fillcolor="#e99457"] ;
619 -> 620 ;
621 [label="Age <= 25.5\ngini = 0.15\nsamples = 6\nvalue = [11, 1]\nclass = I", fillcolor="#e78c4b"] ;
620 -> 621 ;
622 [label="gini = 0.0\nsamples = 2\nvalue = [5, 0]\nclass = I", fillcolor="#e58139"] ;
621 -> 622 ;
623 [label="Age <= 26.5\ngini = 0.24\nsamples = 4\nvalue = [6, 1]\nclass = I", fillcolor="#e9965a"] ;
621 -> 623 ;
624 [label="gini = 0.32\nsamples = 3\nvalue = [4, 1]\nclass = I", fillcolor="#eca06a"] ;
623 -> 624 ;
625 [label="gini = 0.0\nsamples = 1\nvalue = [2, 0]\nclass = I", fillcolor="#e58139"] ;
623 -> 625 ;
626 [label="gini = 0.44\nsamples = 3\nvalue = [2, 1]\nclass = I", fillcolor="#f2c09c"] ;
620 -> 626 ;
627 [label="gini = 0.0\nsamples = 4\nvalue = [7, 0]\nclass = I", fillcolor="#e58139"] ;
619 -> 627 ;
628 [label="gini = 0.0\nsamples = 3\nvalue = [5, 0]\nclass = I", fillcolor="#e58139"] ;
618 -> 628 ;
629 [label="Age <= 25.5\ngini = 0.22\nsamples = 14\nvalue = [21, 3]\nclass = I", fillcolor="#e99355"] ;
617 -> 629 ;
630 [label="gini = 0.0\nsamples = 3\nvalue = [5, 0]\nclass = I", fillcolor="#e58139"] ;
629 -> 630 ;
631 [label="Age <= 26.5\ngini = 0.27\nsamples = 11\nvalue = [16, 3]\nclass = I", fillcolor="#ea995e"] ;
629 -> 631 ;
632 [label="Occupation <= 6.5\ngini = 0.44\nsamples = 2\nvalue = [2, 1]\nclass = I", fillcolor="#f2c09c"] ;
631 -> 632 ;
633 [label="gini = 0.0\nsamples = 1\nvalue = [0, 1]\nclass = n", fillcolor="#399de5"] ;
632 -> 633 ;
634 [label="gini = 0.0\nsamples = 1\nvalue = [2, 0]\nclass = I", fillcolor="#e58139"] ;
632 -> 634 ;
635 [label="Occupation <= 6.5\ngini = 0.22\nsamples = 9\nvalue = [14, 2]\nclass = I", fillcolor="#e99355"] ;
631 -> 635 ;
636 [label="gini = 0.0\nsamples = 3\nvalue = [3, 0]\nclass = I", fillcolor="#e58139"] ;
635 -> 636 ;
637 [label="Age <= 28.5\ngini = 0.26\nsamples = 6\nvalue = [11, 2]\nclass = I", fillcolor="#ea985d"] ;
635 -> 637 ;
638 [label="gini = 0.0\nsamples = 2\nvalue = [3, 0]\nclass = I", fillcolor="#e58139"] ;
637 -> 638 ;
639 [label="gini = 0.32\nsamples = 4\nvalue = [8, 2]\nclass = I", fillcolor="#eca06a"] ;
637 -> 639 ;
640 [label="Occupation <= 5.5\ngini = 0.43\nsamples = 42\nvalue = [48, 22]\nclass = I", fillcolor="#f1bb94"] ;
616 -> 640 ;
641 [label="Occupation <= 4.5\ngini = 0.48\nsamples = 28\nvalue = [29, 19]\nclass = I", fillcolor="#f6d4bb"] ;
640 -> 641 ;
642 [label="Workclass <= 4.5\ngini = 0.47\nsamples = 27\nvalue = [29, 17]\nclass = I", fillcolor="#f4cbad"] ;
641 -> 642 ;
643 [label="Age <= 31.5\ngini = 0.47\nsamples = 24\nvalue = [26, 16]\nclass = I", fillcolor="#f5cfb3"] ;
642 -> 643 ;
644 [label="Occupation <= 3.5\ngini = 0.5\nsamples = 6\nvalue = [7, 6]\nclass = I", fillcolor="#fbede3"] ;
643 -> 644 ;
645 [label="gini = 0.38\nsamples = 4\nvalue = [2, 6]\nclass = n", fillcolor="#7bbeee"] ;
644 -> 645 ;
646 [label="gini = 0.0\nsamples = 2\nvalue = [5, 0]\nclass = I", fillcolor="#e58139"] ;
644 -> 646 ;
647 [label="Occupation <= 3.5\ngini = 0.45\nsamples = 18\nvalue = [19, 10]\nclass = I", fillcolor="#f3c3a1"] ;
643 -> 647 ;
648 [label="Age <= 33.5\ngini = 0.38\nsamples = 12\nvalue = [15, 5]\nclass = I", fillcolor="#eeab7b"] ;
647 -> 648 ;
649 [label="gini = 0.0\nsamples = 4\nvalue = [7, 0]\nclass = I", fillcolor="#e58139"] ;
648 -> 649 ;
650 [label="Age <= 34.5\ngini = 0.47\nsamples = 8\nvalue = [8, 5]\nclass = I", fillcolor="#f5d0b5"] ;
648 -> 650 ;
651 [label="gini = 0.44\nsamples = 4\nvalue = [2, 4]\nclass = n", fillcolor="#9ccef2"] ;
650 -> 651 ;
652 [label="gini = 0.24\nsamples = 4\nvalue = [6, 1]\nclass = I", fillcolor="#e9965a"] ;
650 -> 652 ;
653 [label="Age <= 34.5\ngini = 0.49\nsamples = 6\nvalue = [4, 5]\nclass = n", fillcolor="#d7ebfa"] ;
647 -> 653 ;
654 [label="Age <= 33.0\ngini = 0.49\nsamples = 4\nvalue = [4, 3]\nclass = I", fillcolor="#f8e0ce"] ;
653 -> 654 ;
655 [label="gini = 0.38\nsamples = 2\nvalue = [1, 3]\nclass = n", fillcolor="#7bbeee"] ;
654 -> 655 ;
656 [label="gini = 0.0\nsamples = 2\nvalue = [3, 0]\nclass = I", fillcolor="#e58139"] ;
654 -> 656 ;
657 [label="gini = 0.0\nsamples = 2\nvalue = [0, 2]\nclass = n", fillcolor="#399de5"] ;
653 -> 657 ;
658 [label="Age <= 33.5\ngini = 0.38\nsamples = 3\nvalue = [3, 1]\nclass = I", fillcolor="#eeab7b"] ;
642 -> 658 ;
659 [label="gini = 0.0\nsamples = 2\nvalue = [3, 0]\nclass = I", fillcolor="#e58139"] ;
658 -> 659 ;
660 [label="gini = 0.0\nsamples = 1\nvalue = [0, 1]\nclass = n", fillcolor="#399de5"] ;
658 -> 660 ;
661 [label="gini = 0.0\nsamples = 1\nvalue = [0, 2]\nclass = n", fillcolor="#399de5"] ;
641 -> 661 ;
662 [label="Age <= 33.5\ngini = 0.24\nsamples = 14\nvalue = [19, 3]\nclass = I", fillcolor="#e99558"] ;
640 -> 662 ;
663 [label="gini = 0.0\nsamples = 5\nvalue = [6, 0]\nclass = I", fillcolor="#e58139"] ;
662 -> 663 ;
664 [label="Occupation <= 6.5\ngini = 0.3\nsamples = 9\nvalue = [13, 3]\nclass = I", fillcolor="#eb9e67"] ;
662 -> 664 ;
665 [label="Age <= 34.5\ngini = 0.35\nsamples = 5\nvalue = [7, 2]\nclass = I", fillcolor="#eca572"] ;
664 -> 665 ;
666 [label="gini = 0.48\nsamples = 3\nvalue = [3, 2]\nclass = I", fillcolor="#f6d5bd"] ;
665 -> 666 ;
667 [label="gini = 0.0\nsamples = 2\nvalue = [4, 0]\nclass = I", fillcolor="#e58139"] ;
665 -> 667 ;
668 [label="Age <= 34.5\ngini = 0.24\nsamples = 4\nvalue = [6, 1]\nclass = I", fillcolor="#e9965a"] ;
664 -> 668 ;
669 [label="gini = 0.32\nsamples = 3\nvalue = [4, 1]\nclass = I", fillcolor="#eca06a"] ;
668 -> 669 ;
670 [label="gini = 0.0\nsamples = 1\nvalue = [2, 0]\nclass = I", fillcolor="#e58139"] ;
668 -> 670 ;
671 [label="gini = 0.0\nsamples = 4\nvalue = [7, 0]\nclass = I", fillcolor="#e58139"] ;
615 -> 671 ;
672 [label="gini = 0.0\nsamples = 1\nvalue = [0, 3]\nclass = n", fillcolor="#399de5"] ;
602 -> 672 ;
673 [label="gini = 0.0\nsamples = 7\nvalue = [8, 0]\nclass = I", fillcolor="#e58139"] ;
593 -> 673 ;
674 [label="Age <= 32.5\ngini = 0.48\nsamples = 52\nvalue = [49, 32]\nclass = I", fillcolor="#f6d3ba"] ;
592 -> 674 ;
675 [label="Occupation <= 13.5\ngini = 0.49\nsamples = 31\nvalue = [28, 22]\nclass = I", fillcolor="#f9e4d5"] ;
674 -> 675 ;
676 [label="Workclass <= 3.0\ngini = 0.5\nsamples = 25\nvalue = [21, 21]\nclass = I", fillcolor="#ffffff"] ;
675 -> 676 ;
677 [label="Age <= 28.5\ngini = 0.38\nsamples = 4\nvalue = [3, 1]\nclass = I", fillcolor="#eeab7b"] ;
676 -> 677 ;
678 [label="gini = 0.0\nsamples = 2\nvalue = [2, 0]\nclass = I", fillcolor="#e58139"] ;
677 -> 678 ;
679 [label="Capital-Loss <= 742.5\ngini = 0.5\nsamples = 2\nvalue = [1, 1]\nclass = I", fillcolor="#ffffff"] ;
677 -> 679 ;
680 [label="gini = 0.0\nsamples = 1\nvalue = [1, 0]\nclass = I", fillcolor="#e58139"] ;
679 -> 680 ;
681 [label="gini = 0.0\nsamples = 1\nvalue = [0, 1]\nclass = n", fillcolor="#399de5"] ;
679 -> 681 ;
682 [label="Occupation <= 11.5\ngini = 0.5\nsamples = 21\nvalue = [18, 20]\nclass = n", fillcolor="#ebf5fc"] ;
676 -> 682 ;
683 [label="Occupation <= 10.5\ngini = 0.49\nsamples = 7\nvalue = [9, 7]\nclass = I", fillcolor="#f9e3d3"] ;
682 -> 683 ;
684 [label="Hours-Per-Week <= 39.0\ngini = 0.5\nsamples = 6\nvalue = [8, 7]\nclass = I", fillcolor="#fcefe6"] ;
683 -> 684 ;
685 [label="gini = 0.0\nsamples = 1\nvalue = [0, 3]\nclass = n", fillcolor="#399de5"] ;
684 -> 685 ;
686 [label="Age <= 28.0\ngini = 0.44\nsamples = 5\nvalue = [8, 4]\nclass = I", fillcolor="#f2c09c"] ;
684 -> 686 ;
687 [label="Age <= 26.5\ngini = 0.44\nsamples = 2\nvalue = [2, 4]\nclass = n", fillcolor="#9ccef2"] ;
686 -> 687 ;
688 [label="gini = 0.0\nsamples = 1\nvalue = [2, 0]\nclass = I", fillcolor="#e58139"] ;
687 -> 688 ;
689 [label="gini = 0.0\nsamples = 1\nvalue = [0, 4]\nclass = n", fillcolor="#399de5"] ;
687 -> 689 ;
690 [label="gini = 0.0\nsamples = 3\nvalue = [6, 0]\nclass = I", fillcolor="#e58139"] ;
686 -> 690 ;
691 [label="gini = 0.0\nsamples = 1\nvalue = [1, 0]\nclass = I", fillcolor="#e58139"] ;
683 -> 691 ;
692 [label="Age <= 31.5\ngini = 0.48\nsamples = 14\nvalue = [9, 13]\nclass = n", fillcolor="#c2e1f7"] ;
682 -> 692 ;
693 [label="Capital-Gain <= 1551.5\ngini = 0.5\nsamples = 11\nvalue = [7, 8]\nclass = n", fillcolor="#e6f3fc"] ;
692 -> 693 ;
694 [label="Age <= 25.5\ngini = 0.49\nsamples = 10\nvalue = [7, 5]\nclass = I", fillcolor="#f8dbc6"] ;
693 -> 694 ;
695 [label="gini = 0.38\nsamples = 2\nvalue = [1, 3]\nclass = n", fillcolor="#7bbeee"] ;
694 -> 695 ;
696 [label="Age <= 29.5\ngini = 0.38\nsamples = 8\nvalue = [6, 2]\nclass = I", fillcolor="#eeab7b"] ;
694 -> 696 ;
697 [label="gini = 0.0\nsamples = 4\nvalue = [4, 0]\nclass = I", fillcolor="#e58139"] ;
696 -> 697 ;
698 [label="Age <= 30.5\ngini = 0.5\nsamples = 4\nvalue = [2, 2]\nclass = I", fillcolor="#ffffff"] ;
696 -> 698 ;
699 [label="gini = 0.0\nsamples = 1\nvalue = [0, 1]\nclass = n", fillcolor="#399de5"] ;
698 -> 699 ;
700 [label="gini = 0.44\nsamples = 3\nvalue = [2, 1]\nclass = I", fillcolor="#f2c09c"] ;
698 -> 700 ;
701 [label="gini = 0.0\nsamples = 1\nvalue = [0, 3]\nclass = n", fillcolor="#399de5"] ;
693 -> 701 ;
702 [label="gini = 0.41\nsamples = 3\nvalue = [2, 5]\nclass = n", fillcolor="#88c4ef"] ;
692 -> 702 ;
703 [label="Age <= 26.5\ngini = 0.22\nsamples = 6\nvalue = [7, 1]\nclass = I", fillcolor="#e99355"] ;
675 -> 703 ;
704 [label="gini = 0.0\nsamples = 3\nvalue = [5, 0]\nclass = I", fillcolor="#e58139"] ;
703 -> 704 ;
705 [label="Workclass <= 3.0\ngini = 0.44\nsamples = 3\nvalue = [2, 1]\nclass = I", fillcolor="#f2c09c"] ;
703 -> 705 ;
706 [label="gini = 0.0\nsamples = 1\nvalue = [1, 0]\nclass = I", fillcolor="#e58139"] ;
705 -> 706 ;
707 [label="Age <= 28.0\ngini = 0.5\nsamples = 2\nvalue = [1, 1]\nclass = I", fillcolor="#ffffff"] ;
705 -> 707 ;
708 [label="gini = 0.0\nsamples = 1\nvalue = [0, 1]\nclass = n", fillcolor="#399de5"] ;
707 -> 708 ;
709 [label="gini = 0.0\nsamples = 1\nvalue = [1, 0]\nclass = I", fillcolor="#e58139"] ;
707 -> 709 ;
710 [label="Workclass <= 3.0\ngini = 0.44\nsamples = 21\nvalue = [21, 10]\nclass = I", fillcolor="#f1bd97"] ;
674 -> 710 ;
711 [label="Age <= 34.5\ngini = 0.5\nsamples = 5\nvalue = [3, 3]\nclass = I", fillcolor="#ffffff"] ;
710 -> 711 ;
712 [label="Age <= 33.5\ngini = 0.48\nsamples = 4\nvalue = [2, 3]\nclass = n", fillcolor="#bddef6"] ;
711 -> 712 ;
713 [label="gini = 0.5\nsamples = 3\nvalue = [2, 2]\nclass = I", fillcolor="#ffffff"] ;
712 -> 713 ;
714 [label="gini = 0.0\nsamples = 1\nvalue = [0, 1]\nclass = n", fillcolor="#399de5"] ;
712 -> 714 ;
715 [label="gini = 0.0\nsamples = 1\nvalue = [1, 0]\nclass = I", fillcolor="#e58139"] ;
711 -> 715 ;
716 [label="Occupation <= 13.5\ngini = 0.4\nsamples = 16\nvalue = [18, 7]\nclass = I", fillcolor="#efb286"] ;
710 -> 716 ;
717 [label="Occupation <= 12.5\ngini = 0.45\nsamples = 13\nvalue = [13, 7]\nclass = I", fillcolor="#f3c5a4"] ;
716 -> 717 ;
718 [label="Age <= 34.0\ngini = 0.42\nsamples = 10\nvalue = [12, 5]\nclass = I", fillcolor="#f0b58b"] ;
717 -> 718 ;
719 [label="gini = 0.0\nsamples = 3\nvalue = [3, 0]\nclass = I", fillcolor="#e58139"] ;
718 -> 719 ;
720 [label="Workclass <= 4.5\ngini = 0.46\nsamples = 7\nvalue = [9, 5]\nclass = I", fillcolor="#f3c7a7"] ;
718 -> 720 ;
721 [label="Occupation <= 11.0\ngini = 0.47\nsamples = 6\nvalue = [8, 5]\nclass = I", fillcolor="#f5d0b5"] ;
720 -> 721 ;
722 [label="gini = 0.48\nsamples = 3\nvalue = [3, 2]\nclass = I", fillcolor="#f6d5bd"] ;
721 -> 722 ;
723 [label="gini = 0.47\nsamples = 3\nvalue = [5, 3]\nclass = I", fillcolor="#f5cdb0"] ;
721 -> 723 ;
724 [label="gini = 0.0\nsamples = 1\nvalue = [1, 0]\nclass = I", fillcolor="#e58139"] ;
720 -> 724 ;
725 [label="Capital-Gain <= 1551.5\ngini = 0.44\nsamples = 3\nvalue = [1, 2]\nclass = n", fillcolor="#9ccef2"] ;
717 -> 725 ;
726 [label="Age <= 34.5\ngini = 0.5\nsamples = 2\nvalue = [1, 1]\nclass = I", fillcolor="#ffffff"] ;
725 -> 726 ;
727 [label="gini = 0.0\nsamples = 1\nvalue = [0, 1]\nclass = n", fillcolor="#399de5"] ;
726 -> 727 ;
728 [label="gini = 0.0\nsamples = 1\nvalue = [1, 0]\nclass = I", fillcolor="#e58139"] ;
726 -> 728 ;
729 [label="gini = 0.0\nsamples = 1\nvalue = [0, 1]\nclass = n", fillcolor="#399de5"] ;
725 -> 729 ;
730 [label="gini = 0.0\nsamples = 3\nvalue = [5, 0]\nclass = I", fillcolor="#e58139"] ;
716 -> 730 ;
731 [label="Age <= 27.5\ngini = 0.28\nsamples = 78\nvalue = [108, 22]\nclass = I", fillcolor="#ea9b61"] ;
545 -> 731 ;
732 [label="Native-Country <= 32.5\ngini = 0.07\nsamples = 12\nvalue = [25, 1]\nclass = I", fillcolor="#e68641"] ;
731 -> 732 ;
733 [label="gini = 0.0\nsamples = 2\nvalue = [3, 0]\nclass = I", fillcolor="#e58139"] ;
732 -> 733 ;
734 [label="Hours-Per-Week <= 37.5\ngini = 0.08\nsamples = 10\nvalue = [22, 1]\nclass = I", fillcolor="#e68742"] ;
732 -> 734 ;
735 [label="gini = 0.0\nsamples = 3\nvalue = [7, 0]\nclass = I", fillcolor="#e58139"] ;
734 -> 735 ;
736 [label="Occupation <= 2.0\ngini = 0.12\nsamples = 7\nvalue = [15, 1]\nclass = I", fillcolor="#e78946"] ;
734 -> 736 ;
737 [label="gini = 0.0\nsamples = 1\nvalue = [0, 1]\nclass = n", fillcolor="#399de5"] ;
736 -> 737 ;
738 [label="gini = 0.0\nsamples = 6\nvalue = [15, 0]\nclass = I", fillcolor="#e58139"] ;
736 -> 738 ;
739 [label="Age <= 28.5\ngini = 0.32\nsamples = 66\nvalue = [83, 21]\nclass = I", fillcolor="#eca16b"] ;
731 -> 739 ;
740 [label="Race <= 1.5\ngini = 0.5\nsamples = 8\nvalue = [5, 5]\nclass = I", fillcolor="#ffffff"] ;
739 -> 740 ;
741 [label="gini = 0.0\nsamples = 1\nvalue = [0, 1]\nclass = n", fillcolor="#399de5"] ;
740 -> 741 ;
742 [label="Race <= 3.0\ngini = 0.49\nsamples = 7\nvalue = [5, 4]\nclass = I", fillcolor="#fae6d7"] ;
740 -> 742 ;
743 [label="gini = 0.0\nsamples = 1\nvalue = [1, 0]\nclass = I", fillcolor="#e58139"] ;
742 -> 743 ;
744 [label="Occupation <= 6.5\ngini = 0.5\nsamples = 6\nvalue = [4, 4]\nclass = I", fillcolor="#ffffff"] ;
742 -> 744 ;
745 [label="gini = 0.0\nsamples = 2\nvalue = [3, 0]\nclass = I", fillcolor="#e58139"] ;
744 -> 745 ;
746 [label="Education-Num <= 11.5\ngini = 0.32\nsamples = 4\nvalue = [1, 4]\nclass = n", fillcolor="#6ab6ec"] ;
744 -> 746 ;
747 [label="gini = 0.0\nsamples = 2\nvalue = [0, 2]\nclass = n", fillcolor="#399de5"] ;
746 -> 747 ;
748 [label="Occupation <= 11.0\ngini = 0.44\nsamples = 2\nvalue = [1, 2]\nclass = n", fillcolor="#9ccef2"] ;
746 -> 748 ;
749 [label="gini = 0.0\nsamples = 1\nvalue = [0, 2]\nclass = n", fillcolor="#399de5"] ;
748 -> 749 ;
750 [label="gini = 0.0\nsamples = 1\nvalue = [1, 0]\nclass = I", fillcolor="#e58139"] ;
748 -> 750 ;
751 [label="Race <= 3.0\ngini = 0.28\nsamples = 58\nvalue = [78, 16]\nclass = I", fillcolor="#ea9b62"] ;
739 -> 751 ;
752 [label="gini = 0.0\nsamples = 5\nvalue = [10, 0]\nclass = I", fillcolor="#e58139"] ;
751 -> 752 ;
753 [label="Occupation <= 12.5\ngini = 0.31\nsamples = 53\nvalue = [68, 16]\nclass = I", fillcolor="#eb9f68"] ;
751 -> 753 ;
754 [label="Education <= 7.5\ngini = 0.28\nsamples = 48\nvalue = [63, 13]\nclass = I", fillcolor="#ea9b62"] ;
753 -> 754 ;
755 [label="Occupation <= 2.0\ngini = 0.2\nsamples = 17\nvalue = [24, 3]\nclass = I", fillcolor="#e89152"] ;
754 -> 755 ;
756 [label="Age <= 32.0\ngini = 0.44\nsamples = 4\nvalue = [4, 2]\nclass = I", fillcolor="#f2c09c"] ;
755 -> 756 ;
757 [label="Native-Country <= 30.5\ngini = 0.44\nsamples = 2\nvalue = [1, 2]\nclass = n", fillcolor="#9ccef2"] ;
756 -> 757 ;
758 [label="gini = 0.0\nsamples = 1\nvalue = [1, 0]\nclass = I", fillcolor="#e58139"] ;
757 -> 758 ;
759 [label="gini = 0.0\nsamples = 1\nvalue = [0, 2]\nclass = n", fillcolor="#399de5"] ;
757 -> 759 ;
760 [label="gini = 0.0\nsamples = 2\nvalue = [3, 0]\nclass = I", fillcolor="#e58139"] ;
756 -> 760 ;
761 [label="Workclass <= 3.0\ngini = 0.09\nsamples = 13\nvalue = [20, 1]\nclass = I", fillcolor="#e68743"] ;
755 -> 761 ;
762 [label="Occupation <= 8.0\ngini = 0.32\nsamples = 3\nvalue = [4, 1]\nclass = I", fillcolor="#eca06a"] ;
761 -> 762 ;
763 [label="gini = 0.0\nsamples = 2\nvalue = [4, 0]\nclass = I", fillcolor="#e58139"] ;
762 -> 763 ;
764 [label="gini = 0.0\nsamples = 1\nvalue = [0, 1]\nclass = n", fillcolor="#399de5"] ;
762 -> 764 ;
765 [label="gini = 0.0\nsamples = 10\nvalue = [16, 0]\nclass = I", fillcolor="#e58139"] ;
761 -> 765 ;
766 [label="Hours-Per-Week <= 39.0\ngini = 0.32\nsamples = 31\nvalue = [39, 10]\nclass = I", fillcolor="#eca16c"] ;
754 -> 766 ;
767 [label="gini = 0.0\nsamples = 1\nvalue = [1, 0]\nclass = I", fillcolor="#e58139"] ;
766 -> 767 ;
768 [label="Native-Country <= 32.5\ngini = 0.33\nsamples = 30\nvalue = [38, 10]\nclass = I", fillcolor="#eca26d"] ;
766 -> 768 ;
769 [label="gini = 0.0\nsamples = 3\nvalue = [4, 0]\nclass = I", fillcolor="#e58139"] ;
768 -> 769 ;
770 [label="Workclass <= 3.0\ngini = 0.35\nsamples = 27\nvalue = [34, 10]\nclass = I", fillcolor="#eda673"] ;
768 -> 770 ;
771 [label="gini = 0.0\nsamples = 1\nvalue = [1, 0]\nclass = I", fillcolor="#e58139"] ;
770 -> 771 ;
772 [label="Occupation <= 11.0\ngini = 0.36\nsamples = 26\nvalue = [33, 10]\nclass = I", fillcolor="#eda775"] ;
770 -> 772 ;
773 [label="Age <= 29.5\ngini = 0.39\nsamples = 22\nvalue = [27, 10]\nclass = I", fillcolor="#efb082"] ;
772 -> 773 ;
774 [label="Occupation <= 5.5\ngini = 0.23\nsamples = 9\nvalue = [13, 2]\nclass = I", fillcolor="#e99457"] ;
773 -> 774 ;
775 [label="Occupation <= 2.0\ngini = 0.48\nsamples = 4\nvalue = [3, 2]\nclass = I", fillcolor="#f6d5bd"] ;
774 -> 775 ;
776 [label="gini = 0.0\nsamples = 2\nvalue = [3, 0]\nclass = I", fillcolor="#e58139"] ;
775 -> 776 ;
777 [label="gini = 0.0\nsamples = 2\nvalue = [0, 2]\nclass = n", fillcolor="#399de5"] ;
775 -> 777 ;
778 [label="gini = 0.0\nsamples = 5\nvalue = [10, 0]\nclass = I", fillcolor="#e58139"] ;
774 -> 778 ;
779 [label="Age <= 30.5\ngini = 0.46\nsamples = 13\nvalue = [14, 8]\nclass = I", fillcolor="#f4c9aa"] ;
773 -> 779 ;
780 [label="gini = 0.0\nsamples = 1\nvalue = [0, 1]\nclass = n", fillcolor="#399de5"] ;
779 -> 780 ;
781 [label="Occupation <= 7.5\ngini = 0.44\nsamples = 12\nvalue = [14, 7]\nclass = I", fillcolor="#f2c09c"] ;
779 -> 781 ;
782 [label="Occupation <= 6.5\ngini = 0.35\nsamples = 11\nvalue = [14, 4]\nclass = I", fillcolor="#eca572"] ;
781 -> 782 ;
783 [label="Capital-Loss <= 870.0\ngini = 0.43\nsamples = 9\nvalue = [9, 4]\nclass = I", fillcolor="#f1b991"] ;
782 -> 783 ;
784 [label="Age <= 32.5\ngini = 0.44\nsamples = 8\nvalue = [8, 4]\nclass = I", fillcolor="#f2c09c"] ;
783 -> 784 ;
785 [label="Age <= 31.5\ngini = 0.5\nsamples = 5\nvalue = [4, 4]\nclass = I", fillcolor="#ffffff"] ;
784 -> 785 ;
786 [label="Occupation <= 3.5\ngini = 0.5\nsamples = 2\nvalue = [1, 1]\nclass = I", fillcolor="#ffffff"] ;
785 -> 786 ;
787 [label="gini = 0.0\nsamples = 1\nvalue = [0, 1]\nclass = n", fillcolor="#399de5"] ;
786 -> 787 ;
788 [label="gini = 0.0\nsamples = 1\nvalue = [1, 0]\nclass = I", fillcolor="#e58139"] ;
786 -> 788 ;
789 [label="Occupation <= 4.5\ngini = 0.5\nsamples = 3\nvalue = [3, 3]\nclass = I", fillcolor="#ffffff"] ;
785 -> 789 ;
790 [label="gini = 0.0\nsamples = 2\nvalue = [3, 0]\nclass = I", fillcolor="#e58139"] ;
789 -> 790 ;
791 [label="gini = 0.0\nsamples = 1\nvalue = [0, 3]\nclass = n", fillcolor="#399de5"] ;
789 -> 791 ;
792 [label="gini = 0.0\nsamples = 3\nvalue = [4, 0]\nclass = I", fillcolor="#e58139"] ;
784 -> 792 ;
793 [label="gini = 0.0\nsamples = 1\nvalue = [1, 0]\nclass = I", fillcolor="#e58139"] ;
783 -> 793 ;
794 [label="gini = 0.0\nsamples = 2\nvalue = [5, 0]\nclass = I", fillcolor="#e58139"] ;
782 -> 794 ;
795 [label="gini = 0.0\nsamples = 1\nvalue = [0, 3]\nclass = n", fillcolor="#399de5"] ;
781 -> 795 ;
796 [label="gini = 0.0\nsamples = 4\nvalue = [6, 0]\nclass = I", fillcolor="#e58139"] ;
772 -> 796 ;
797 [label="Hours-Per-Week <= 35.0\ngini = 0.47\nsamples = 5\nvalue = [5, 3]\nclass = I", fillcolor="#f5cdb0"] ;
753 -> 797 ;
798 [label="gini = 0.0\nsamples = 1\nvalue = [0, 1]\nclass = n", fillcolor="#399de5"] ;
797 -> 798 ;
799 [label="Education <= 7.5\ngini = 0.41\nsamples = 4\nvalue = [5, 2]\nclass = I", fillcolor="#efb388"] ;
797 -> 799 ;
800 [label="gini = 0.0\nsamples = 1\nvalue = [1, 0]\nclass = I", fillcolor="#e58139"] ;
799 -> 800 ;
801 [label="Occupation <= 13.5\ngini = 0.44\nsamples = 3\nvalue = [4, 2]\nclass = I", fillcolor="#f2c09c"] ;
799 -> 801 ;
802 [label="Age <= 34.5\ngini = 0.5\nsamples = 2\nvalue = [2, 2]\nclass = I", fillcolor="#ffffff"] ;
801 -> 802 ;
803 [label="gini = 0.0\nsamples = 1\nvalue = [2, 0]\nclass = I", fillcolor="#e58139"] ;
802 -> 803 ;
804 [label="gini = 0.0\nsamples = 1\nvalue = [0, 2]\nclass = n", fillcolor="#399de5"] ;
802 -> 804 ;
805 [label="gini = 0.0\nsamples = 1\nvalue = [2, 0]\nclass = I", fillcolor="#e58139"] ;
801 -> 805 ;
806 [label="Education <= 11.5\ngini = 0.1\nsamples = 41\nvalue = [56, 3]\nclass = I", fillcolor="#e68844"] ;
526 -> 806 ;
807 [label="Workclass <= 6.5\ngini = 0.28\nsamples = 9\nvalue = [10, 2]\nclass = I", fillcolor="#ea9a61"] ;
806 -> 807 ;
808 [label="gini = 0.0\nsamples = 3\nvalue = [4, 0]\nclass = I", fillcolor="#e58139"] ;
807 -> 808 ;
809 [label="Education <= 7.5\ngini = 0.38\nsamples = 6\nvalue = [6, 2]\nclass = I", fillcolor="#eeab7b"] ;
807 -> 809 ;
810 [label="Hours-Per-Week <= 35.0\ngini = 0.38\nsamples = 3\nvalue = [3, 1]\nclass = I", fillcolor="#eeab7b"] ;
809 -> 810 ;
811 [label="gini = 0.0\nsamples = 1\nvalue = [2, 0]\nclass = I", fillcolor="#e58139"] ;
810 -> 811 ;
812 [label="Occupation <= 8.0\ngini = 0.5\nsamples = 2\nvalue = [1, 1]\nclass = I", fillcolor="#ffffff"] ;
810 -> 812 ;
813 [label="gini = 0.0\nsamples = 1\nvalue = [1, 0]\nclass = I", fillcolor="#e58139"] ;
812 -> 813 ;
814 [label="gini = 0.0\nsamples = 1\nvalue = [0, 1]\nclass = n", fillcolor="#399de5"] ;
812 -> 814 ;
815 [label="Age <= 30.0\ngini = 0.38\nsamples = 3\nvalue = [3, 1]\nclass = I", fillcolor="#eeab7b"] ;
809 -> 815 ;
816 [label="gini = 0.0\nsamples = 1\nvalue = [0, 1]\nclass = n", fillcolor="#399de5"] ;
815 -> 816 ;
817 [label="gini = 0.0\nsamples = 2\nvalue = [3, 0]\nclass = I", fillcolor="#e58139"] ;
815 -> 817 ;
818 [label="Hours-Per-Week <= 39.0\ngini = 0.04\nsamples = 32\nvalue = [46, 1]\nclass = I", fillcolor="#e6843d"] ;
806 -> 818 ;
819 [label="gini = 0.0\nsamples = 14\nvalue = [23, 0]\nclass = I", fillcolor="#e58139"] ;
818 -> 819 ;
820 [label="Workclass <= 6.5\ngini = 0.08\nsamples = 18\nvalue = [23, 1]\nclass = I", fillcolor="#e68642"] ;
818 -> 820 ;
821 [label="gini = 0.0\nsamples = 8\nvalue = [9, 0]\nclass = I", fillcolor="#e58139"] ;
820 -> 821 ;
822 [label="Age <= 26.5\ngini = 0.12\nsamples = 10\nvalue = [14, 1]\nclass = I", fillcolor="#e78a47"] ;
820 -> 822 ;
823 [label="gini = 0.0\nsamples = 5\nvalue = [8, 0]\nclass = I", fillcolor="#e58139"] ;
822 -> 823 ;
824 [label="Capital-Gain <= 1705.5\ngini = 0.24\nsamples = 5\nvalue = [6, 1]\nclass = I", fillcolor="#e9965a"] ;
822 -> 824 ;
825 [label="Race <= 3.0\ngini = 0.28\nsamples = 4\nvalue = [5, 1]\nclass = I", fillcolor="#ea9a61"] ;
824 -> 825 ;
826 [label="gini = 0.0\nsamples = 1\nvalue = [0, 1]\nclass = n", fillcolor="#399de5"] ;
825 -> 826 ;
827 [label="gini = 0.0\nsamples = 3\nvalue = [5, 0]\nclass = I", fillcolor="#e58139"] ;
825 -> 827 ;
828 [label="gini = 0.0\nsamples = 1\nvalue = [1, 0]\nclass = I", fillcolor="#e58139"] ;
824 -> 828 ;
829 [label="gini = 0.0\nsamples = 2\nvalue = [0, 5]\nclass = n", fillcolor="#399de5"] ;
525 -> 829 ;
830 [label="gini = 0.0\nsamples = 4\nvalue = [0, 10]\nclass = n", fillcolor="#399de5"] ;
282 -> 830 ;
831 [label="Hours-Per-Week <= 34.5\ngini = 0.44\nsamples = 1892\nvalue = [2006, 1001]\nclass = I", fillcolor="#f2c09c"] ;
281 -> 831 ;
832 [label="Occupation <= 10.5\ngini = 0.18\nsamples = 251\nvalue = [357, 39]\nclass = I", fillcolor="#e88f4f"] ;
831 -> 832 ;
833 [label="Age <= 61.5\ngini = 0.12\nsamples = 189\nvalue = [283, 20]\nclass = I", fillcolor="#e78a47"] ;
832 -> 833 ;
834 [label="Education-Num <= 9.5\ngini = 0.19\nsamples = 101\nvalue = [146, 17]\nclass = I", fillcolor="#e89050"] ;
833 -> 834 ;
835 [label="Workclass <= 1.0\ngini = 0.1\nsamples = 69\nvalue = [102, 6]\nclass = I", fillcolor="#e78845"] ;
834 -> 835 ;
836 [label="Race <= 3.0\ngini = 0.24\nsamples = 11\nvalue = [18, 3]\nclass = I", fillcolor="#e9965a"] ;
835 -> 836 ;
837 [label="gini = 0.0\nsamples = 2\nvalue = [3, 0]\nclass = I", fillcolor="#e58139"] ;
836 -> 837 ;
838 [label="Capital-Gain <= 1732.0\ngini = 0.28\nsamples = 9\nvalue = [15, 3]\nclass = I", fillcolor="#ea9a61"] ;
836 -> 838 ;
839 [label="Age <= 55.5\ngini = 0.29\nsamples = 8\nvalue = [14, 3]\nclass = I", fillcolor="#eb9c63"] ;
838 -> 839 ;
840 [label="Hours-Per-Week <= 29.0\ngini = 0.48\nsamples = 2\nvalue = [2, 3]\nclass = n", fillcolor="#bddef6"] ;
839 -> 840 ;
841 [label="gini = 0.0\nsamples = 1\nvalue = [2, 0]\nclass = I", fillcolor="#e58139"] ;
840 -> 841 ;
842 [label="gini = 0.0\nsamples = 1\nvalue = [0, 3]\nclass = n", fillcolor="#399de5"] ;
840 -> 842 ;
843 [label="gini = 0.0\nsamples = 6\nvalue = [12, 0]\nclass = I", fillcolor="#e58139"] ;
839 -> 843 ;
844 [label="gini = 0.0\nsamples = 1\nvalue = [1, 0]\nclass = I", fillcolor="#e58139"] ;
838 -> 844 ;
845 [label="Native-Country <= 37.0\ngini = 0.07\nsamples = 58\nvalue = [84, 3]\nclass = I", fillcolor="#e68640"] ;
835 -> 845 ;
846 [label="gini = 0.0\nsamples = 13\nvalue = [22, 0]\nclass = I", fillcolor="#e58139"] ;
845 -> 846 ;
847 [label="Occupation <= 3.5\ngini = 0.09\nsamples = 45\nvalue = [62, 3]\nclass = I", fillcolor="#e68743"] ;
845 -> 847 ;
848 [label="gini = 0.0\nsamples = 19\nvalue = [26, 0]\nclass = I", fillcolor="#e58139"] ;
847 -> 848 ;
849 [label="Occupation <= 4.5\ngini = 0.14\nsamples = 26\nvalue = [36, 3]\nclass = I", fillcolor="#e78c49"] ;
847 -> 849 ;
850 [label="Age <= 54.5\ngini = 0.44\nsamples = 5\nvalue = [4, 2]\nclass = I", fillcolor="#f2c09c"] ;
849 -> 850 ;
851 [label="gini = 0.0\nsamples = 3\nvalue = [4, 0]\nclass = I", fillcolor="#e58139"] ;
850 -> 851 ;
852 [label="gini = 0.0\nsamples = 2\nvalue = [0, 2]\nclass = n", fillcolor="#399de5"] ;
850 -> 852 ;
853 [label="Workclass <= 5.0\ngini = 0.06\nsamples = 21\nvalue = [32, 1]\nclass = I", fillcolor="#e6853f"] ;
849 -> 853 ;
854 [label="Workclass <= 3.0\ngini = 0.09\nsamples = 14\nvalue = [20, 1]\nclass = I", fillcolor="#e68743"] ;
853 -> 854 ;
855 [label="gini = 0.0\nsamples = 1\nvalue = [1, 0]\nclass = I", fillcolor="#e58139"] ;
854 -> 855 ;
856 [label="Capital-Gain <= 2193.0\ngini = 0.09\nsamples = 13\nvalue = [19, 1]\nclass = I", fillcolor="#e68843"] ;
854 -> 856 ;
857 [label="gini = 0.0\nsamples = 11\nvalue = [17, 0]\nclass = I", fillcolor="#e58139"] ;
856 -> 857 ;
858 [label="Occupation <= 9.0\ngini = 0.44\nsamples = 2\nvalue = [2, 1]\nclass = I", fillcolor="#f2c09c"] ;
856 -> 858 ;
859 [label="gini = 0.0\nsamples = 1\nvalue = [0, 1]\nclass = n", fillcolor="#399de5"] ;
858 -> 859 ;
860 [label="gini = 0.0\nsamples = 1\nvalue = [2, 0]\nclass = I", fillcolor="#e58139"] ;
858 -> 860 ;
861 [label="gini = 0.0\nsamples = 7\nvalue = [12, 0]\nclass = I", fillcolor="#e58139"] ;
853 -> 861 ;
862 [label="Hours-Per-Week <= 5.0\ngini = 0.32\nsamples = 32\nvalue = [44, 11]\nclass = I", fillcolor="#eca06a"] ;
834 -> 862 ;
863 [label="gini = 0.0\nsamples = 1\nvalue = [0, 1]\nclass = n", fillcolor="#399de5"] ;
862 -> 863 ;
864 [label="Native-Country <= 32.5\ngini = 0.3\nsamples = 31\nvalue = [44, 10]\nclass = I", fillcolor="#eb9e66"] ;
862 -> 864 ;
865 [label="gini = 0.0\nsamples = 2\nvalue = [2, 0]\nclass = I", fillcolor="#e58139"] ;
864 -> 865 ;
866 [label="Age <= 57.5\ngini = 0.31\nsamples = 29\nvalue = [42, 10]\nclass = I", fillcolor="#eb9f68"] ;
864 -> 866 ;
867 [label="Education <= 7.5\ngini = 0.21\nsamples = 23\nvalue = [36, 5]\nclass = I", fillcolor="#e99254"] ;
866 -> 867 ;
868 [label="gini = 0.0\nsamples = 1\nvalue = [3, 0]\nclass = I", fillcolor="#e58139"] ;
867 -> 868 ;
869 [label="Hours-Per-Week <= 18.5\ngini = 0.23\nsamples = 22\nvalue = [33, 5]\nclass = I", fillcolor="#e99457"] ;
867 -> 869 ;
870 [label="gini = 0.0\nsamples = 3\nvalue = [7, 0]\nclass = I", fillcolor="#e58139"] ;
869 -> 870 ;
871 [label="Education <= 11.5\ngini = 0.27\nsamples = 19\nvalue = [26, 5]\nclass = I", fillcolor="#ea995f"] ;
869 -> 871 ;
872 [label="Age <= 43.5\ngini = 0.32\nsamples = 3\nvalue = [4, 1]\nclass = I", fillcolor="#eca06a"] ;
871 -> 872 ;
873 [label="gini = 0.0\nsamples = 1\nvalue = [3, 0]\nclass = I", fillcolor="#e58139"] ;
872 -> 873 ;
874 [label="Age <= 46.0\ngini = 0.5\nsamples = 2\nvalue = [1, 1]\nclass = I", fillcolor="#ffffff"] ;
872 -> 874 ;
875 [label="gini = 0.0\nsamples = 1\nvalue = [0, 1]\nclass = n", fillcolor="#399de5"] ;
874 -> 875 ;
876 [label="gini = 0.0\nsamples = 1\nvalue = [1, 0]\nclass = I", fillcolor="#e58139"] ;
874 -> 876 ;
877 [label="Race <= 3.0\ngini = 0.26\nsamples = 16\nvalue = [22, 4]\nclass = I", fillcolor="#ea985d"] ;
871 -> 877 ;
878 [label="gini = 0.0\nsamples = 3\nvalue = [3, 0]\nclass = I", fillcolor="#e58139"] ;
877 -> 878 ;
879 [label="Hours-Per-Week <= 21.0\ngini = 0.29\nsamples = 13\nvalue = [19, 4]\nclass = I", fillcolor="#ea9c63"] ;
877 -> 879 ;
880 [label="Workclass <= 5.0\ngini = 0.44\nsamples = 5\nvalue = [6, 3]\nclass = I", fillcolor="#f2c09c"] ;
879 -> 880 ;
881 [label="Workclass <= 2.0\ngini = 0.38\nsamples = 3\nvalue = [1, 3]\nclass = n", fillcolor="#7bbeee"] ;
880 -> 881 ;
882 [label="Age <= 43.0\ngini = 0.44\nsamples = 2\nvalue = [1, 2]\nclass = n", fillcolor="#9ccef2"] ;
881 -> 882 ;
883 [label="gini = 0.0\nsamples = 1\nvalue = [1, 0]\nclass = I", fillcolor="#e58139"] ;
882 -> 883 ;
884 [label="gini = 0.0\nsamples = 1\nvalue = [0, 2]\nclass = n", fillcolor="#399de5"] ;
882 -> 884 ;
885 [label="gini = 0.0\nsamples = 1\nvalue = [0, 1]\nclass = n", fillcolor="#399de5"] ;
881 -> 885 ;
886 [label="gini = 0.0\nsamples = 2\nvalue = [5, 0]\nclass = I", fillcolor="#e58139"] ;
880 -> 886 ;
887 [label="Occupation <= 4.5\ngini = 0.13\nsamples = 8\nvalue = [13, 1]\nclass = I", fillcolor="#e78b48"] ;
879 -> 887 ;
888 [label="Occupation <= 3.5\ngini = 0.28\nsamples = 3\nvalue = [5, 1]\nclass = I", fillcolor="#ea9a61"] ;
887 -> 888 ;
889 [label="gini = 0.0\nsamples = 2\nvalue = [5, 0]\nclass = I", fillcolor="#e58139"] ;
888 -> 889 ;
890 [label="gini = 0.0\nsamples = 1\nvalue = [0, 1]\nclass = n", fillcolor="#399de5"] ;
888 -> 890 ;
891 [label="gini = 0.0\nsamples = 5\nvalue = [8, 0]\nclass = I", fillcolor="#e58139"] ;
887 -> 891 ;
892 [label="Workclass <= 5.0\ngini = 0.5\nsamples = 6\nvalue = [6, 5]\nclass = I", fillcolor="#fbeade"] ;
866 -> 892 ;
893 [label="Hours-Per-Week <= 28.0\ngini = 0.38\nsamples = 5\nvalue = [6, 2]\nclass = I", fillcolor="#eeab7b"] ;
892 -> 893 ;
894 [label="Hours-Per-Week <= 16.0\ngini = 0.24\nsamples = 4\nvalue = [6, 1]\nclass = I", fillcolor="#e9965a"] ;
893 -> 894 ;
895 [label="Age <= 59.5\ngini = 0.32\nsamples = 2\nvalue = [4, 1]\nclass = I", fillcolor="#eca06a"] ;
894 -> 895 ;
896 [label="gini = 0.0\nsamples = 1\nvalue = [4, 0]\nclass = I", fillcolor="#e58139"] ;
895 -> 896 ;
897 [label="gini = 0.0\nsamples = 1\nvalue = [0, 1]\nclass = n", fillcolor="#399de5"] ;
895 -> 897 ;
